Filename,Embedding
0.jpg,0.950910747051239,0.22436434030532837,0.11578929424285889,-0.22339722514152527,-0.18118421733379364,-0.5407451391220093,0.23739223182201385,-0.6924667358398438,1.7116634845733643,-0.685731828212738,0.07810154557228088,0.2519526779651642,-0.30297794938087463,0.08479081839323044,1.063828706741333,1.453595757484436,1.1879346370697021,-0.6456565856933594,-0.18450431525707245,-0.9202548861503601,0.2386758029460907,0.11139792203903198,0.09972934424877167,0.39768728613853455,-0.5691491365432739,0.11739673465490341,-0.14615660905838013,0.4881685972213745,0.5951835513114929,1.0879017114639282,0.7874603867530823,0.19995716214179993,-0.4027296304702759,0.6454632878303528,0.4991826117038727,0.45435959100723267,0.29057368636131287,0.8809633851051331,-0.09576614201068878,-0.02523685246706009,1.3608413934707642,-0.09627704322338104,-0.20106352865695953,0.08425736427307129,0.35905691981315613,-0.135520800948143,0.06885959953069687,0.4015376567840576,0.4621735215187073,0.7270678281784058,-0.662560224533081,-0.6308369636535645,0.07104320824146271,0.33060091733932495,-0.02558603323996067,-0.0610949844121933,-0.5656238794326782,0.34578201174736023,-0.2066144049167633,-0.29199084639549255,-0.08221215009689331,-0.49215254187583923,0.2570071220397949,-0.5689544081687927,0.5601946711540222,-0.4244634211063385,-0.6077291369438171,0.6558132767677307,0.35881635546684265,0.06949065625667572,0.2717548608779907,-0.6278991103172302,-0.7138676643371582,-1.1584450006484985,0.1780562698841095,0.051591694355010986,0.4600854516029358,-0.38393068313598633,0.6331313848495483,0.8987905383110046,0.5874729156494141,0.114296555519104,0.12982913851737976,0.7905339598655701,-2.1587467193603516,-0.2272282987833023,0.33916836977005005,-0.1535106748342514,-0.5895047783851624,-0.21873122453689575,-0.49382665753364563,0.3870718479156494,-0.39800310134887695,-0.11264209449291229,0.7218829989433289,1.335540771484375,0.28907087445259094,0.2547299563884735,0.10228877514600754,0.08430520445108414,0.2093489170074463,-0.38037315011024475,0.5155325531959534,1.1441093683242798,-0.20596295595169067,0.3110036849975586,-0.3822023570537567,0.8684093952178955,-0.039804842323064804,0.8975179195404053,0.17812085151672363,0.08540602773427963,-0.676582396030426,-0.1388719379901886,-1.2816616296768188,-0.5874590873718262,-0.24815280735492706,2.5993547439575195,-0.27181610465049744,0.7073494791984558,0.37757232785224915,0.8777487874031067,-0.023583266884088516,-0.09941297769546509,-0.41736307740211487,0.13748572766780853,-0.8610296249389648,0.5260596871376038,-6.659429550170898,-1.2699912786483765,-0.42861616611480713,-0.3184775114059448,0.575353741645813,0.6628555059432983,0.253696471452713,1.025964379310608,-0.1751522272825241,0.4345944821834564,-0.22974221408367157,0.2708195447921753,0.3377436697483063,0.06100063771009445,1.0091254711151123,-0.07305832207202911,-0.5153306126594543,-0.1530347764492035,0.9139496088027954,0.933746874332428,0.7380377054214478,-1.0021885633468628,0.449390709400177,0.09427954256534576,-0.3952699899673462,0.5233541131019592,0.6522058248519897,0.258523166179657,-0.6416640281677246,-0.6005294322967529,0.2049178034067154,0.8859264254570007,-0.05605888366699219,0.14168834686279297,-0.5895228981971741,-0.3675227165222168,0.42742565274238586,0.017325351014733315,0.5296677947044373,0.17322322726249695,-0.46418458223342896,0.20405146479606628,-0.7847805023193359,-0.29846349358558655,0.4059608280658722,0.9657230377197266,0.06321685016155243,0.3998410999774933,1.111819863319397,0.1754208505153656,0.9816388487815857,-0.19907774031162262,0.25090768933296204,-0.01073623076081276,-0.4420832693576813,0.5777591466903687,-0.6009416580200195,-9.68686294555664,-0.3773748278617859,0.20815613865852356,-0.12449998408555984,0.07034959644079208,0.15663886070251465,0.4204477071762085,-0.557630717754364,0.2512681484222412,-0.2097999006509781,0.6263485550880432,0.01422528550028801,-0.8771154284477234,0.25559327006340027,0.1874903440475464,0.4350435137748718,-0.6343246698379517,-0.18033652007579803,-0.41623446345329285,0.3483111262321472,-0.09051536023616791,0.14386868476867676,0.03286759555339813,0.40393730998039246,0.49955105781555176,-0.27879953384399414,-0.4031924605369568,0.6959624290466309,-0.9122800827026367,0.00783245824277401,0.639238178730011,0.1827247589826584,0.28733980655670166,1.1257593631744385,-0.5667838454246521,-0.19291415810585022,0.786098062992096,6.952754020690918,0.2699719965457916,-0.11296884715557098,0.20094497501850128,0.1477954089641571,0.37613242864608765,0.40282121300697327,1.3870675563812256,1.1104226112365723,0.40357640385627747,1.7920418977737427,0.3325044810771942,-0.36635279655456543,0.028935883194208145,0.4903546869754791,-0.1691095232963562,0.9962350726127625,-1.1413849592208862,0.6059339642524719,-0.6249287128448486,0.0973680168390274,-0.16978543996810913,-0.44274958968162537,-0.09902786463499069,0.2852780520915985,0.35853835940361023,1.0583820343017578,-0.16522592306137085,0.3435475528240204,0.29591694474220276,-0.6675548553466797,0.585917592048645,0.027772754430770874,-0.00703786313533783,-0.9519134163856506,0.5941567420959473,-0.21019628643989563,-0.20897012948989868,0.5545027256011963,0.019278697669506073,-2.225682258605957,0.06793522834777832,0.47366997599601746,0.6332768201828003,0.6199513077735901,-0.04725029319524765,0.9956159591674805,-0.4503120183944702,-0.44467201828956604,1.151638150215149,0.05734628438949585,-0.092251718044281,0.2156655639410019,0.6139995455741882,0.16065457463264465,0.6007148027420044,-0.9374421238899231,-0.021476123481988907,-0.434781551361084,0.7916005253791809,-0.08957290649414062,0.7269159555435181,-0.5996155142784119,-0.3146592676639557,0.46791648864746094,0.23723870515823364,-0.1546238660812378,0.4041121304035187,0.36815744638442993,-0.584471583366394,0.18366821110248566,0.37285366654396057,-0.46839261054992676,0.052310843020677567,0.4313619136810303,-0.2236608862876892,0.6157814264297485,0.09979022294282913,1.3828502893447876,0.19163648784160614,-0.030913829803466797,0.28003692626953125,0.4251744747161865,0.11860635876655579,0.5889773368835449,0.9801013469696045,0.33875229954719543,0.3641873002052307,-0.6764900088310242,-0.12155432999134064,0.09185219556093216,0.49572762846946716,-0.12683609127998352,1.4818912744522095,-0.6521171927452087,0.4884214401245117,0.15718922019004822,-0.5685701966285706,-0.022755106911063194,0.7363802790641785,0.45236214995384216,-0.2930934727191925,-0.19833725690841675,0.6269429922103882,0.43298953771591187,-0.4033814072608948,-0.4446127414703369,-0.15464714169502258,1.196364164352417,0.21954113245010376,0.6505678296089172,0.3831532597541809,-0.16087093949317932,2.338010311126709,-0.8953574299812317,0.005456901155412197,-0.4628370702266693,0.6048691868782043,0.45434290170669556,-0.5334168076515198,-0.25756552815437317,0.10330446064472198,1.4904778003692627,-0.9494664072990417,0.3337642550468445,0.5651119351387024,-0.07895873486995697,0.44267189502716064,-0.5552140474319458,0.5805780291557312,-0.8368439674377441,-0.22797882556915283,0.21096552908420563,0.00045616645365953445,0.49105286598205566,-0.38627591729164124,0.11025005578994751,-0.211256742477417,0.030885230749845505,0.18416115641593933,-0.17466793954372406,0.5073321461677551,0.3874278664588928,0.19809694588184357,-0.23001334071159363,0.3040071427822113,-0.7628645896911621,0.5941402316093445,-0.02584013342857361,1.4489415884017944,0.04973326623439789,0.37976688146591187,-0.3544890284538269,0.1470559537410736,0.22960150241851807,0.7038124799728394,0.45293277502059937,-0.06058049201965332,-1.2005620002746582,-0.5191510915756226,0.3985556364059448,-0.8299360871315002,0.09545543789863586,-0.2582017183303833,0.3640517294406891,0.46951067447662354,0.43435296416282654,-0.08571283519268036,0.05719567835330963,0.6615654230117798,-0.3979141414165497,-0.7269949913024902,1.027760624885559,0.17068345844745636,0.608748733997345,-0.25089511275291443,0.6819405555725098,-0.43518733978271484,-0.9962854385375977,0.20357993245124817,-0.010636691004037857,0.20426006615161896,1.2281148433685303,-0.05546768009662628,-0.403518408536911,0.2913641929626465,0.6865133047103882,0.4955596923828125,-0.3209614157676697,-0.5731805562973022,-0.30336180329322815,-0.7275815010070801,1.039817214012146,0.3843708038330078,0.009415548294782639,-0.774596631526947,1.364059329032898,0.08667196333408356,-0.1302168071269989,0.21855761110782623,0.7989574670791626,0.3710627853870392,-0.14938829839229584,1.2375450134277344,-0.5460360646247864,0.9627463817596436,-1.7552363872528076,-0.04356396198272705,-0.22683508694171906,-0.3817325830459595,0.2916713356971741,0.8467907905578613,-0.060718510299921036,1.251618504524231,0.3295987844467163,0.30483508110046387,-0.121955007314682,0.5443297028541565,0.43863099813461304,1.1215718984603882,0.9443801641464233,-0.8834086656570435,-0.17089304327964783,-0.738985002040863,0.4313404858112335,-0.7336651086807251,-0.11788159608840942,0.3692542612552643,0.3339674472808838,-0.057462193071842194,-0.31073009967803955,-0.36535459756851196,0.29493603110313416,0.17937272787094116,0.8591206669807434,0.4395201802253723,0.45241838693618774,-0.09186526387929916,0.056244514882564545,0.2301025539636612,0.09951151907444,-0.1395057737827301,0.5267656445503235,0.4239482581615448,0.035555947571992874,-0.36411041021347046,-0.08705540001392365,0.021573849022388458,0.6467483043670654,-1.0917881727218628,-1.2134863138198853,0.8511346578598022,-0.2961297333240509,0.45527029037475586,0.47351571917533875,0.5952194929122925,0.09817348420619965,-0.16489212214946747,-1.029186725616455,-0.7965169548988342,0.15128527581691742,0.16808103024959564,0.6983458399772644,1.3391038179397583,-0.41570261120796204,0.18955902755260468,0.24616453051567078,0.49431487917900085,0.5215746760368347,-0.3217179477214813,-0.5106983184814453,0.7090826034545898,0.4452587962150574,0.0773458331823349,-0.8341473340988159,-0.1540878713130951,-0.09928002953529358,0.28793057799339294,-0.12446042150259018,0.2614951729774475,0.5311223864555359,0.10017340630292892,0.47926461696624756,-1.7156562805175781,-0.5165015459060669,-0.8774634003639221,0.8610278964042664,0.013353005051612854,0.2029215395450592,0.4008336067199707,1.0269529819488525,0.34031808376312256,-0.47352367639541626,1.1826937198638916,-0.6279617547988892,0.18017859756946564,0.6377987265586853,-0.15004239976406097,0.08520567417144775,-0.3913806676864624,0.38643407821655273,-0.32645633816719055,1.0452200174331665,1.315511703491211,-0.12422272562980652,0.049337584525346756,0.36973440647125244,0.2797945737838745,0.39399945735931396,-0.14445120096206665,-0.009634546935558319,0.07659277319908142,-0.25535356998443604,0.39082422852516174,0.3485325574874878,0.9481849670410156,-0.3333856165409088,0.46406248211860657,-0.29865968227386475,0.33120274543762207,0.3301581144332886,1.230322241783142,0.24532532691955566,0.873086154460907,0.3027150630950928,-0.2719570994377136,0.28490757942199707,0.5985738039016724,0.29121923446655273,0.1738784909248352,-0.1227201372385025,0.6493235230445862,0.18044914305210114,0.019299272447824478,-0.41938793659210205,0.2603289484977722,-0.12800079584121704,-0.40354788303375244,0.5922495126724243,0.5627315044403076,-0.8957819938659668,-0.8164340853691101,0.42807069420814514,0.0045212022960186005,-0.05481543764472008,0.16806566715240479,0.1606970727443695,-0.23089031875133514,-0.2665460407733917,1.1928789615631104,1.1659250259399414,-0.10708288103342056,-0.3431766629219055,0.18600574135780334,1.7341254949569702,0.3452199399471283,0.9789546132087708,2.15675950050354,1.3620141744613647,-0.5007598996162415,0.45218151807785034,0.36301663517951965,0.05302281677722931,-0.5130355358123779,0.1687697470188141,0.16933903098106384,-0.3869890868663788,-0.22555047273635864,-0.36134713888168335,-0.17048834264278412,-0.057748548686504364,-0.04149390757083893,-0.20021238923072815,0.5498355627059937,-0.22830769419670105,0.6159123182296753,-0.2181214988231659,-0.36050525307655334,0.5169358253479004,0.6356375217437744,0.13425081968307495,0.4492541551589966,6.821004867553711,0.7870765924453735,-0.21164415776729584,-0.4191517233848572,0.3887978494167328,0.5009701251983643,-0.4142983555793762,0.3864993155002594,0.1413296014070511,0.1304726004600525,0.518760621547699,-0.4746750593185425,-0.5944004654884338,0.4390046000480652,0.37981152534484863,0.6282893419265747,1.0033771991729736,0.19109982252120972,0.6961550712585449,0.2641701102256775,-1.2081060409545898,-5.481776714324951,0.5298752784729004,0.11568198353052139,-0.47213298082351685,-1.2044031620025635,-0.6454305052757263,0.5786676406860352,-0.2479621022939682,0.04223766177892685,0.45553112030029297,0.23874221742153168,0.9449185729026794,0.4599175751209259,0.011248227208852768,0.7745611667633057,0.6164103150367737,-0.10778255760669708,-0.6788792610168457,0.5596333146095276,-0.4111194610595703,-0.3200879693031311,1.674928903579712,0.7613352537155151,0.3250269293785095,-0.10696151852607727,-6.869888782501221,-0.8435989022254944,-0.0662788599729538,0.15664681792259216,0.4877653419971466,-0.05899091437458992,0.0461576022207737,0.1179625391960144,0.1940578818321228,0.5860337018966675,-0.4108222424983978,0.5216360092163086,0.1660810261964798,0.11070287972688675,0.1383862942457199,0.8248533606529236,0.061091355979442596,0.020399777218699455,-0.14097270369529724,-0.3449946343898773,1.0564477443695068,0.0543162003159523,-0.17677797377109528,0.4954368472099304,-0.46233081817626953,-0.5854970216751099,-0.13432271778583527,0.149277925491333,1.2079585790634155,0.13966260850429535,0.6347144246101379,0.08766172081232071,-0.4965929388999939,0.166090190410614,-0.16530576348304749,0.35385650396347046,-0.7545296549797058,-0.7233079075813293,-0.07546453922986984,-0.6188057065010071,-0.2735210657119751,-0.08186782151460648,-0.27961695194244385,1.0412349700927734,0.07084113359451294,0.16996698081493378,0.24285833537578583,0.3016028106212616,0.6301060914993286,-0.2784685790538788,0.1867108941078186,-0.2334384322166443,1.0622750520706177,-0.12723320722579956,0.15138503909111023,0.394724041223526,-0.11155852675437927,-0.2844727337360382,-0.19919851422309875,0.8373396396636963,-0.10157544910907745,0.7337250113487244,-0.24878068268299103,0.450731098651886,0.9406023025512695,-0.04774244874715805,-0.11366603523492813,-0.041408851742744446,0.6778160333633423,-0.2345174103975296,-0.009376637637615204,-0.5377656817436218,0.33871522545814514,0.5247241854667664,1.177022099494934,0.4597315788269043,-0.29101482033729553,0.9742503762245178,0.7184464931488037,-0.3130916655063629,-0.22509561479091644,0.5034855604171753,-0.6268447637557983,0.5617339015007019,-0.3650933802127838,0.10844868421554565,0.0025807544589042664,-0.17938268184661865,-0.3852896988391876,0.3879774212837219,-0.2104330062866211,0.40960943698883057,0.4203917980194092,-0.4213632643222809,-0.907826840877533,-0.5146303772926331,0.2440226674079895,-0.7822737693786621,0.2017175406217575,0.8741680979728699,-0.6762517690658569,-0.0791669487953186,-0.5214622020721436,0.3172721266746521,0.30590158700942993,-0.896992564201355,0.47338107228279114,-0.28057417273521423,0.2658984661102295,0.11105189472436905,-2.1567461490631104,0.5201259255409241,0.5679230690002441,-0.3332519829273224,0.7639060616493225,-0.808978259563446,-0.16767261922359467,0.8078155517578125
1.jpg,0.5544851422309875,-0.15801958739757538,0.40655630826950073,-0.15870656073093414,-0.17988300323486328,-1.4646766185760498,0.4101152718067169,-0.4725540578365326,0.8331936597824097,-0.038521625101566315,0.5567519664764404,-0.15908488631248474,-0.4362398087978363,0.6594056487083435,0.6738772988319397,1.7143124341964722,1.47752046585083,-0.6097177267074585,0.42174363136291504,-0.247525155544281,-0.6793838143348694,0.12907056510448456,0.2670581340789795,-0.19311858713626862,-0.08053144812583923,-0.28461703658103943,0.32251620292663574,0.02064952813088894,-0.2843055725097656,0.41993024945259094,0.22332625091075897,0.4798872768878937,-0.8915237188339233,0.6413578391075134,0.059652574360370636,0.3482838571071625,0.1864064782857895,1.1281218528747559,0.34458473324775696,0.6652880907058716,1.2158958911895752,0.045860275626182556,0.09458793699741364,-0.49970003962516785,-0.8252660036087036,-0.17527666687965393,-0.010749274864792824,0.305512011051178,-0.6872214674949646,0.21318389475345612,-0.428114652633667,0.4007487893104553,0.08618179708719254,-0.27314573526382446,0.9438785910606384,0.41400742530822754,-0.39958611130714417,0.698712170124054,-0.8211397528648376,-0.8075809478759766,-0.4840753674507141,-0.8353033065795898,1.110451579093933,-1.1670466661453247,-0.5964423418045044,0.2996056079864502,-0.2285827100276947,0.4997465908527374,0.2926766276359558,0.44483235478401184,-0.24510550498962402,-0.030448466539382935,0.5778346061706543,-0.2567761540412903,0.2865091562271118,-1.0543330907821655,0.6064136624336243,-0.10305760055780411,0.21311452984809875,0.4307752251625061,0.6909699440002441,-0.015596523880958557,-0.32171547412872314,-0.24072009325027466,-0.8562729358673096,-0.5083767771720886,-0.9691500067710876,-0.512516438961029,-0.16129840910434723,-0.04871030151844025,-0.09105408936738968,0.05190924555063248,-0.04842917621135712,0.0048413584008812904,0.7787624001502991,0.18142403662204742,-0.08752284944057465,0.21060314774513245,-0.03046456351876259,1.1141676902770996,0.3529752194881439,-0.625523567199707,0.739680290222168,0.9483004808425903,0.7118580937385559,-0.250711053609848,-0.30963781476020813,0.7237578630447388,-0.05256727337837219,0.8160716891288757,0.5316140055656433,1.0904560089111328,-0.33803242444992065,0.7042873501777649,0.027957165613770485,-0.05603181943297386,-0.01895841211080551,2.307419538497925,0.32060250639915466,-0.25809401273727417,0.22394199669361115,0.11825937777757645,-0.09436221420764923,-0.1537902057170868,-0.9598480463027954,-0.1831342875957489,-0.4540221691131592,0.879654586315155,-6.454023361206055,-0.18387052416801453,-0.4710578918457031,-0.16532017290592194,-0.4728269875049591,1.052085041999817,-0.2919273376464844,0.7648650407791138,0.14744001626968384,0.44503095746040344,0.04184673726558685,0.3320709764957428,0.6409565806388855,-0.3220357596874237,1.0683292150497437,0.21935983002185822,0.47328871488571167,0.019100064411759377,0.07319372892379761,0.23216886818408966,1.0837712287902832,-0.3958584666252136,-0.4252072870731354,0.022987814620137215,-1.0208207368850708,0.4445403218269348,0.7258169651031494,0.2049863338470459,-0.976571261882782,-0.8570058345794678,-0.24750246107578278,-0.013327056542038918,0.46244657039642334,-0.006580139975994825,-0.01662697270512581,-0.3659372627735138,0.27866485714912415,0.057171717286109924,1.1763113737106323,1.7219971418380737,0.08958267420530319,0.8523414134979248,-0.48956042528152466,0.2863418161869049,-0.1163206696510315,0.5024144053459167,-0.2587965130805969,-0.6562944650650024,1.0791951417922974,-0.07938142865896225,0.654873251914978,0.2958909571170807,-0.3855278193950653,0.389822393655777,0.01846114732325077,-0.6644188165664673,-1.2010747194290161,-11.186603546142578,0.0684109479188919,0.8375645279884338,-0.22190871834754944,0.17175520956516266,0.21207906305789948,0.38352975249290466,-0.977287769317627,-0.9907167553901672,0.3168945014476776,-0.06748571991920471,0.18300050497055054,-0.8346712589263916,1.1387799978256226,0.6609681844711304,0.9299227595329285,0.047327056527137756,-0.6939214468002319,-0.07119733095169067,1.4542056322097778,0.24631145596504211,0.5620667934417725,-0.31403297185897827,-0.34972625970840454,0.7284891605377197,-0.6833489537239075,0.37499380111694336,1.002856969833374,-0.5938324332237244,0.2747735381126404,0.6208978295326233,-0.6704679727554321,0.2862984240055084,0.48165005445480347,-0.36273807287216187,-0.3952026963233948,0.560444176197052,6.9964823722839355,0.7112197279930115,-0.10991810262203217,-0.04952437803149223,-0.17307211458683014,0.17424696683883667,0.39668768644332886,0.9202629327774048,0.9148096442222595,0.19959375262260437,2.23738431930542,0.3938874900341034,-0.35976555943489075,0.06007152795791626,0.175717294216156,-0.1148657575249672,0.4503666162490845,-0.6197600364685059,-0.3540390431880951,-0.7744796276092529,-0.1687725931406021,-0.26374170184135437,0.1016552597284317,1.1287111043930054,-0.3217272162437439,0.4217106103897095,-0.06839057803153992,0.5634148716926575,0.26204177737236023,-0.04476066678762436,-0.1547854095697403,-0.01906277984380722,-0.03942497819662094,0.40353548526763916,-0.3945736289024353,0.02377382107079029,0.7185143232345581,-0.5315417051315308,-0.12939201295375824,0.4630328416824341,-1.554704189300537,0.34580326080322266,-0.06714494526386261,0.09088081866502762,0.7005571722984314,-0.6052545309066772,-0.1925700157880783,0.359809011220932,-0.22436827421188354,0.7949032187461853,-0.5527236461639404,0.19402122497558594,0.6737096309661865,0.6994462013244629,-0.5853531360626221,1.1180181503295898,0.5594179630279541,0.33362963795661926,0.4004124701023102,-0.024942439049482346,0.12659114599227905,-0.3687034249305725,-0.42847779393196106,0.08115287125110626,0.15507705509662628,0.7224767208099365,0.23950716853141785,-0.10298866033554077,-0.8861430287361145,-0.2260744273662567,0.09512660652399063,0.298708438873291,0.016819646582007408,0.20788174867630005,-0.11403336375951767,0.5978986024856567,0.03857213258743286,0.2165951430797577,1.4438942670822144,-0.3984053432941437,0.719690203666687,-0.0514010488986969,0.1933637261390686,-0.028116930276155472,0.5857122540473938,0.23110100626945496,0.3182302713394165,0.12265525758266449,-0.018140235915780067,0.253664493560791,-0.18658475577831268,0.36031103134155273,0.05832289159297943,0.2744199335575104,-0.5827487111091614,0.8943121433258057,0.062436431646347046,-0.09167125821113586,-0.09426963329315186,0.313037246465683,0.5035407543182373,-0.2960452437400818,0.46372324228286743,0.42887070775032043,-0.007690843660384417,-0.47000575065612793,0.2684597671031952,0.008651498705148697,1.3785557746887207,0.04953925311565399,1.2565897703170776,-0.1067805290222168,0.5050727725028992,3.5061745643615723,-1.717719554901123,-0.5305508971214294,-0.7498358488082886,0.31900733709335327,-0.07896691560745239,-0.48122328519821167,-0.3734774887561798,-0.2946409583091736,0.26166850328445435,-0.1178971529006958,-0.19950687885284424,0.0013701487332582474,-0.24109597504138947,1.3159124851226807,-0.07942415773868561,0.7847005724906921,-0.49560701847076416,-0.2570315897464752,-0.683220386505127,-0.021936381235718727,-0.0539688766002655,-0.28680217266082764,-0.04206114262342453,-0.35296183824539185,0.35580572485923767,-0.2600160837173462,0.5270072817802429,-0.18582084774971008,0.9563038945198059,0.2367759495973587,-0.6556068658828735,-0.0590280219912529,-0.34544265270233154,-0.44100987911224365,-1.0487444400787354,1.047518014907837,0.20405013859272003,0.360964298248291,0.2597159743309021,0.6935235261917114,0.3438321650028229,0.9189526438713074,0.9282900094985962,-0.2998063266277313,-0.31847915053367615,0.41007986664772034,0.006803230382502079,-0.21390798687934875,0.07175128161907196,-0.9063407778739929,0.43219462037086487,1.2529960870742798,0.46398863196372986,0.2015133649110794,-0.15007710456848145,0.7918777465820312,-0.1292717009782791,-0.3148309290409088,0.29302048683166504,0.43335118889808655,0.5085048675537109,-0.12150251865386963,0.4512883722782135,-0.07754763215780258,-0.41191235184669495,-0.036793649196624756,-0.19307704269886017,0.35498833656311035,1.2425816059112549,0.3333929479122162,-0.061317626386880875,0.04262823611497879,-0.14319701492786407,-0.24030137062072754,0.6381433606147766,0.31785088777542114,0.4684649705886841,-0.20404061675071716,0.6984281539916992,0.9246811866760254,0.4388321042060852,0.2984057068824768,1.7984033823013306,0.32313406467437744,0.8066334128379822,0.5665580034255981,0.9004876613616943,0.1852712780237198,-0.29571521282196045,0.6485996246337891,-0.6873176097869873,0.15732616186141968,-1.4312026500701904,0.2508261203765869,0.42099231481552124,-0.03614204749464989,-0.2997194528579712,0.027453690767288208,-0.024631911888718605,1.1259467601776123,0.24263522028923035,0.5984659790992737,-0.32070040702819824,0.9933612942695618,1.9388552904129028,0.1305420845746994,0.3564148545265198,-0.21165534853935242,0.16031384468078613,-0.26361826062202454,0.3049747049808502,-0.148198664188385,-0.0048376936465501785,0.7154958248138428,0.3853732645511627,-0.3222193717956543,-0.17363682389259338,0.431522011756897,-0.3155916631221771,0.35673612356185913,0.4968606233596802,0.2959488332271576,-0.0984591543674469,0.6726019382476807,-1.1342062950134277,0.8446662425994873,0.006857879459857941,-0.6023675203323364,0.6090977787971497,-0.42423516511917114,-0.22084744274616241,0.1396303027868271,-0.20843257009983063,0.17607837915420532,0.033349111676216125,-0.045288532972335815,-1.1672228574752808,1.070428490638733,-0.49252623319625854,0.5533158183097839,-0.11020933091640472,-0.07821729779243469,0.2175869196653366,0.4775959551334381,-0.558437168598175,-0.5673070549964905,0.5492681264877319,0.30550575256347656,-0.21107453107833862,0.6252924203872681,0.4520323574542999,-0.542876124382019,-0.2655499577522278,0.5459014773368835,0.193712055683136,0.26396000385284424,-0.11573236435651779,0.8268826007843018,-0.17327916622161865,-0.16782118380069733,-0.3461650609970093,0.582679808139801,-0.39127087593078613,0.5283288359642029,-0.18762163817882538,0.5041544437408447,-0.01646452769637108,-0.8577789664268494,0.287284255027771,-1.8929020166397095,-0.2326354831457138,-0.9193455576896667,0.07172553241252899,0.2215701788663864,0.6380075812339783,0.5480814576148987,0.6627650260925293,-0.01579669490456581,-0.6877696514129639,0.2506929039955139,0.18353021144866943,-0.031104829162359238,0.6981268525123596,-0.11454182863235474,0.7515983581542969,0.22842425107955933,-0.30096179246902466,0.009610281325876713,-0.07763078063726425,0.511614978313446,-0.02430957928299904,-0.37526416778564453,0.46483898162841797,0.4318625330924988,0.9655501246452332,-0.20234154164791107,-0.1328297108411789,-0.44029927253723145,0.18124859035015106,-0.13148687779903412,0.03140709549188614,-0.14209797978401184,-0.3195544183254242,-0.12000774592161179,-0.003417346626520157,0.7240514159202576,-0.0403563566505909,1.0437356233596802,-0.2821265161037445,-0.001466264482587576,-0.1921730488538742,-0.06918174028396606,-0.1993217021226883,0.5838815569877625,0.8702601790428162,-0.2270519733428955,-0.008071544580161572,0.022817905992269516,0.16262750327587128,0.49595245718955994,-0.1937536895275116,-0.26772499084472656,-1.1105748414993286,-0.1514890193939209,-0.378937304019928,0.10549315810203552,-0.6232020258903503,-0.3931986093521118,-0.3523251414299011,-0.2762918174266815,-0.7107309103012085,0.25448668003082275,0.20477929711341858,-0.7876020073890686,0.7168098092079163,1.0658148527145386,0.9787454605102539,-0.1739310920238495,0.2087639570236206,-0.08420674502849579,0.24810132384300232,0.278218150138855,0.6253819465637207,2.213561773300171,0.8281545042991638,0.563811182975769,1.1188629865646362,-0.3045099079608917,0.22773286700248718,-0.28863009810447693,0.051875848323106766,0.15154916048049927,-0.22542224824428558,-0.35912781953811646,0.43792176246643066,0.16877737641334534,-0.1560688018798828,0.07743711769580841,-0.640977680683136,1.0855464935302734,-0.5060527920722961,-0.3716546893119812,0.21264323592185974,-0.19668112695217133,0.398234486579895,0.9345182776451111,0.26456785202026367,1.1881685256958008,6.2375617027282715,0.15062937140464783,0.3458406925201416,0.03616861253976822,0.1480504721403122,0.26156923174858093,0.7771705985069275,-0.2521597146987915,-0.2389465868473053,-0.281097948551178,0.40569809079170227,0.033722247928380966,0.5598623752593994,0.542118489742279,0.10324019938707352,0.09996768832206726,0.4939315915107727,0.3769714832305908,-0.44897398352622986,-0.8665265440940857,-0.11327023804187775,-4.787088871002197,1.0579274892807007,0.2542400062084198,-0.3681621849536896,-1.0533926486968994,-0.46643227338790894,0.7009974122047424,0.017927013337612152,0.921492874622345,0.6800069808959961,-0.34448644518852234,0.48487722873687744,-0.8667274117469788,-1.8726027011871338,0.13347500562667847,0.19923600554466248,0.15834873914718628,0.6289485692977905,0.4039916396141052,-0.5580674409866333,-0.16492216289043427,0.12036138772964478,-0.09392531216144562,0.8227968811988831,0.22485244274139404,-6.41982364654541,0.2418578863143921,0.854394793510437,-0.34761643409729004,0.6669497489929199,0.33495017886161804,0.22274893522262573,0.3709373474121094,0.15356795489788055,0.15947997570037842,0.44329795241355896,-0.16361616551876068,0.10006699711084366,-0.12687258422374725,0.21896259486675262,0.5304591655731201,0.594440221786499,0.6583234667778015,-0.39076364040374756,-0.5359439849853516,0.37566056847572327,-0.2358788102865219,-0.28252631425857544,-0.038982879370450974,-0.3418430685997009,-0.3647470772266388,-0.15750060975551605,0.0516284704208374,0.774554431438446,0.32338961958885193,-0.18221619725227356,0.30568453669548035,-0.2047727406024933,0.42520248889923096,-0.809522807598114,0.4474925100803375,-0.2584304213523865,-0.6053696870803833,0.326388955116272,0.14698508381843567,0.46127212047576904,0.5369681119918823,0.25731292366981506,0.48604175448417664,-0.11913321167230606,0.10253673791885376,0.016618192195892334,1.051309585571289,0.21821939945220947,-0.23965351283550262,0.18171902000904083,-0.38363906741142273,0.9397188425064087,0.18395908176898956,-0.3101542294025421,0.1067475825548172,0.4443647861480713,-0.051234059035778046,-0.5911994576454163,0.5932208299636841,-0.23089481890201569,0.5757782459259033,0.3024143576622009,-0.24976256489753723,0.9891389012336731,-0.6193375587463379,-1.0853222608566284,0.264653742313385,0.06449776142835617,-0.28544899821281433,0.17281633615493774,-0.30428242683410645,0.05300623178482056,0.40339791774749756,0.2507030665874481,-0.46721720695495605,0.4672396779060364,0.2057325392961502,-0.34208738803863525,0.11304468661546707,0.2953059673309326,0.08911202102899551,-0.11444419622421265,-0.16769008338451385,-1.0523076057434082,0.49457958340644836,-0.7568151354789734,-0.7740346193313599,-0.26664671301841736,1.0001517534255981,0.6763788461685181,0.558422863483429,-0.009810410439968109,0.09590961039066315,-0.6768885254859924,-0.8210772275924683,0.37323588132858276,-1.30463707447052,0.5296484231948853,0.4635068476200104,-0.12680880725383759,-0.23472577333450317,-0.5897179841995239,-0.12477318942546844,0.011460431851446629,-0.34893983602523804,0.5300799012184143,0.773622989654541,0.09272055327892303,0.2429923564195633,-2.0225253105163574,0.7459608912467957,0.34340235590934753,0.14324134588241577,0.5652658939361572,-0.7483612298965454,0.6412201523780823,0.6706712245941162
3.jpg,0.714232325553894,-0.15248745679855347,0.040582653135061264,-1.355305552482605,-0.24946270883083344,-1.1236401796340942,0.4212851822376251,-0.5746080875396729,1.1369868516921997,-0.17769111692905426,0.07151143252849579,0.18462145328521729,-0.7005608677864075,0.27775993943214417,1.1389553546905518,0.7247717976570129,1.2659986019134521,-0.6938084959983826,0.027542419731616974,-0.43445897102355957,-0.11708672344684601,-0.1804322749376297,0.05308565869927406,0.23210446536540985,-0.7813383340835571,-0.09745782613754272,-0.06153082102537155,0.6198786497116089,0.22865748405456543,0.8414078950881958,0.33839040994644165,0.24184413254261017,-0.6027304530143738,0.22388450801372528,0.4731661081314087,0.3211934268474579,0.7608659863471985,0.7134762406349182,0.7255296111106873,0.3316352367401123,1.357551097869873,0.12354745715856552,-0.12618960440158844,-0.10422320663928986,-0.08828721195459366,0.036555446684360504,-0.44475245475769043,0.42020630836486816,0.517604410648346,0.4344909191131592,-0.3779395818710327,0.20345225930213928,0.0300848800688982,0.6386750936508179,0.782099723815918,0.21854886412620544,-0.49491938948631287,0.40288421511650085,0.3224702775478363,-0.5839328765869141,-0.06293994188308716,-0.8049033284187317,1.0094192028045654,-0.5081939697265625,-0.2822133004665375,-0.037484850734472275,0.03863684833049774,0.6647357940673828,0.09955490380525589,0.0612499862909317,0.16243979334831238,-0.40496283769607544,-0.165976420044899,-1.1620029211044312,0.5855313539505005,-0.4913007915019989,-0.13077978789806366,-0.10455144941806793,0.42190325260162354,0.8920546770095825,0.4928433895111084,0.26921314001083374,-0.10408887267112732,0.25947797298431396,-0.9085648059844971,-0.07558823376893997,-0.5982784032821655,0.349584698677063,-0.15362975001335144,-0.1511552333831787,-0.021621763706207275,0.4208357334136963,-0.5527954697608948,0.0899767205119133,0.35699546337127686,0.8487298488616943,-0.22087596356868744,0.6886862516403198,0.5905830264091492,1.1467137336730957,0.4839836657047272,-1.0040687322616577,0.2312658429145813,0.834446132183075,-0.14019644260406494,-0.08269266784191132,-0.5917832851409912,0.790706217288971,0.033264994621276855,0.20275498926639557,0.8249119520187378,0.20418214797973633,-0.11825575679540634,0.701433539390564,-0.4503582715988159,-0.3550906479358673,-0.3340442478656769,2.9156880378723145,0.3623007535934448,0.22221438586711884,0.18716929852962494,0.0035269781947135925,0.09625405073165894,-0.18466493487358093,-1.03052818775177,-0.6506128311157227,-0.21112532913684845,0.636055052280426,-7.264044761657715,-0.7255953550338745,-0.5745897889137268,-0.4317532777786255,-0.42863428592681885,0.5053179860115051,0.7368130683898926,0.17882227897644043,0.07040954381227493,0.46645042300224304,-0.4299691617488861,0.3200798034667969,0.11831820011138916,-0.20504334568977356,0.7933312654495239,-0.024349965155124664,0.2103012502193451,-0.037044987082481384,0.9421001076698303,0.5470123887062073,0.7070893049240112,0.24648919701576233,0.4488711953163147,0.4301082491874695,-0.30625617504119873,0.8870717883110046,0.25507283210754395,0.02903677709400654,-1.2933204174041748,-0.7683435678482056,-0.09099049866199493,0.1569773256778717,0.33460763096809387,0.760489821434021,-0.2589244544506073,-0.2216740846633911,0.11542807519435883,-0.09494107216596603,1.6059951782226562,0.8471567034721375,-0.3319719433784485,0.3493971824645996,0.18881140649318695,-0.42692363262176514,0.3234827518463135,1.1730602979660034,0.3756943643093109,-0.4847594201564789,1.7473840713500977,0.1959797441959381,0.7789512276649475,0.06365610659122467,-0.2252633422613144,0.09784930944442749,0.18098337948322296,-0.2578299939632416,-0.46890121698379517,-11.693723678588867,0.11026430130004883,0.7182700634002686,0.8040980696678162,-0.003793874755501747,0.23243510723114014,0.3201703429222107,-0.30049264430999756,-0.16451972723007202,0.09994485974311829,0.48636579513549805,-0.7284162044525146,-0.984781801700592,0.9669760465621948,0.08988162130117416,0.801641047000885,-0.34972473978996277,-0.029684104025363922,-0.5404084920883179,0.6494241952896118,0.28167596459388733,0.4680621922016144,-0.11352051794528961,-0.32585281133651733,1.0860137939453125,-0.1943650245666504,-0.19415651261806488,0.4760824143886566,-0.8095738887786865,-0.04738827422261238,1.0511291027069092,-0.6439939141273499,0.2805047631263733,1.3333216905593872,-0.2247942090034485,-0.5017857551574707,1.1085325479507446,6.279533863067627,0.37618938088417053,-0.04443984851241112,0.5051141381263733,-0.03995160013437271,0.3391091525554657,0.3992500901222229,0.7052415609359741,1.1431902647018433,0.25120672583580017,1.730831265449524,0.17725177109241486,-0.7633479833602905,0.12749119102954865,0.09330403804779053,-0.498869389295578,0.3905375599861145,-0.597791850566864,0.005553863942623138,-0.625037431716919,0.44364362955093384,-0.5479418039321899,-0.283770352602005,0.2680661976337433,-0.17915788292884827,0.21235552430152893,0.41017448902130127,0.3685857355594635,0.7681187391281128,-0.2389851212501526,-0.06099546700716019,0.501587450504303,0.34794187545776367,0.19446733593940735,-0.41545796394348145,0.8239060640335083,0.5976588726043701,-0.8303143382072449,-0.025365818291902542,0.608437716960907,-1.7029309272766113,-0.4192594289779663,-0.0706012025475502,0.10881106555461884,0.2128455489873886,-0.8468173742294312,0.5638090372085571,-0.6805435419082642,0.05208133906126022,1.5921403169631958,-0.40136706829071045,0.2678605020046234,0.0469837486743927,0.7244577407836914,0.08257509768009186,0.9354541301727295,0.12773554027080536,0.6572637557983398,0.04196076840162277,0.5135074853897095,-0.44635331630706787,-0.34503597021102905,-0.2403908669948578,-0.8416002988815308,1.2872910499572754,0.3853560984134674,0.45489323139190674,-0.26317647099494934,-0.4602241814136505,-0.47108274698257446,-0.24253350496292114,0.7584491968154907,-0.7677240967750549,0.18854211270809174,0.11557842046022415,0.3442781865596771,0.1951180398464203,0.05906274914741516,1.4917497634887695,0.022976834326982498,0.282680869102478,0.48554494976997375,-0.3021102249622345,-0.27981579303741455,0.2860003709793091,0.39189544320106506,0.9010996222496033,0.4051723778247833,-0.08829617500305176,0.18425026535987854,0.07250533252954483,1.2024894952774048,0.32394400238990784,0.6057144403457642,-0.8009910583496094,0.1759992241859436,-0.0359824001789093,0.0922439843416214,-0.08349207043647766,0.10361157357692719,0.3335343897342682,-0.24553845822811127,-0.019496742635965347,0.04369288682937622,0.7287349104881287,0.2544792890548706,-0.1365920901298523,-0.179428368806839,1.0258138179779053,0.003118058666586876,0.3672262728214264,0.5950800776481628,0.35445764660835266,2.545325517654419,-1.5478382110595703,-0.19689525663852692,-0.07524392008781433,0.6745732426643372,-0.29166167974472046,-1.0445454120635986,-0.20582017302513123,0.20595766603946686,0.5064386129379272,-0.6431875228881836,-0.42586609721183777,-0.2526574432849884,-0.05726280435919762,0.7330545783042908,-0.12220144271850586,0.9314329624176025,-0.3321867287158966,0.1839345097541809,-0.2459268569946289,-0.3846542239189148,0.42785724997520447,-0.09835530817508698,-0.025585994124412537,0.30235081911087036,0.3395790755748749,0.349539577960968,0.1771567016839981,-0.1580297350883484,0.7288116216659546,-0.018118346109986305,-0.39493364095687866,0.24909617006778717,-0.9560128450393677,-0.26365551352500916,-0.6411616206169128,0.31958794593811035,0.33761799335479736,0.6097478866577148,-0.007769608870148659,0.137216255068779,0.4654870927333832,0.8261348009109497,0.2150350958108902,-0.06901541352272034,-0.6612187623977661,-0.7310826182365417,-0.21461856365203857,-0.5109928250312805,-0.18274058401584625,-0.7121880650520325,0.8140556812286377,1.464282512664795,0.5154746770858765,-0.01778283715248108,0.562659502029419,0.6626930236816406,-0.3055545389652252,-0.6380037069320679,0.7570548057556152,0.021466942504048347,0.5328702330589294,-0.4890761971473694,0.884719729423523,-0.7147414684295654,-0.5677701830863953,0.08562774956226349,0.11734645068645477,0.3317285478115082,1.3686729669570923,0.1943252682685852,-0.10971289873123169,0.9118330478668213,-0.3703382611274719,0.01709330640733242,-0.4019106328487396,-0.19288738071918488,0.09911499917507172,-0.4177068769931793,1.213909387588501,0.45028451085090637,0.056224528700113297,-0.4033917188644409,1.5833581686019897,-0.19954542815685272,0.6425370573997498,0.7417033314704895,0.7902190089225769,0.528947651386261,-0.26892513036727905,0.4542030096054077,-0.6674313545227051,0.6366493701934814,-1.9595279693603516,0.2939036786556244,0.47081899642944336,-0.4676513671875,-0.737432599067688,0.681849479675293,-0.38573554158210754,0.790390133857727,0.3150227665901184,0.6134943962097168,0.09859991073608398,0.7987725734710693,0.7198869585990906,0.68161541223526,0.4246911406517029,-0.7956745028495789,0.07426352798938751,0.2404412478208542,0.061640456318855286,-0.23190800845623016,0.512527346611023,0.01903882622718811,-0.01658722758293152,-0.03356103599071503,-0.050271835178136826,0.3568972945213318,0.12446784228086472,0.3688262701034546,0.5544610619544983,0.17416948080062866,0.04006512463092804,0.6145104765892029,-1.244505524635315,0.14305099844932556,-0.9221181273460388,-0.3009571433067322,0.8730273246765137,-0.19083809852600098,-0.5296512842178345,0.04673868790268898,0.021609505638480186,-0.24262304604053497,0.09808176010847092,-0.8553829193115234,-1.1741979122161865,1.401435136795044,-0.7502769231796265,0.4383629858493805,0.659834086894989,0.5008060336112976,0.062077850103378296,0.13903094828128815,-0.5478653311729431,-0.8711433410644531,0.9332156777381897,-0.1987062394618988,0.30234599113464355,0.8528401255607605,0.601291298866272,-0.16654017567634583,0.05540262535214424,0.28569650650024414,0.4363466501235962,-0.1684015840291977,-0.2665475308895111,1.1278836727142334,-0.2170037478208542,0.1782313734292984,-0.9614909291267395,-0.2847856283187866,0.2632676064968109,0.40895241498947144,-0.41958382725715637,0.6002497673034668,0.5983967185020447,-1.0071550607681274,0.3729807436466217,-2.2771081924438477,0.005535349249839783,-0.5391315817832947,0.1139574646949768,0.13852667808532715,0.9026588797569275,0.2974555790424347,0.3975486159324646,0.7975627183914185,0.2805938720703125,0.4895249307155609,-0.14217953383922577,0.1394878625869751,0.6509206891059875,0.02181936427950859,0.38502371311187744,0.6301670670509338,0.05921468883752823,0.20731304585933685,0.7001857757568359,1.2269153594970703,-0.22007007896900177,-0.4342339038848877,0.28885897994041443,0.43081173300743103,0.413308322429657,-0.08488209545612335,0.3996128737926483,0.23792114853858948,0.8310074210166931,-0.00392599543556571,0.019465705379843712,0.6663352251052856,-0.6050846576690674,-0.11390842497348785,0.08476336300373077,1.3162823915481567,-0.14524926245212555,1.0722445249557495,-0.14892113208770752,0.12017594277858734,0.07032369822263718,0.4928889870643616,0.2801523804664612,0.57831871509552,0.817927360534668,-0.2900006175041199,0.09548875689506531,0.22692623734474182,0.07510430365800858,0.18902069330215454,-0.30646824836730957,0.16072741150856018,0.15502947568893433,-0.2294030785560608,-0.23619836568832397,0.4183809161186218,-1.0898019075393677,-0.5878083109855652,0.2166348695755005,0.44765692949295044,-0.014470051974058151,-0.03989633172750473,0.06420806795358658,0.2157236933708191,0.2803438901901245,0.9424018859863281,0.21398992836475372,0.19087183475494385,0.5305528044700623,0.5627822279930115,0.6314581036567688,-0.09446841478347778,0.7617181539535522,1.1193009614944458,0.8705037832260132,0.5886867642402649,0.6240794062614441,0.35823124647140503,0.46944549679756165,-0.17298054695129395,0.38304319977760315,0.4505312740802765,-0.18223124742507935,-0.23729318380355835,0.8354125022888184,-0.6324170827865601,-0.5673915147781372,0.4875923991203308,-0.8103438019752502,0.8491609692573547,-0.42455798387527466,-0.41104599833488464,-0.010526319965720177,-0.40067461133003235,0.11250221729278564,0.3792116343975067,0.4320164620876312,0.650933563709259,5.271686553955078,0.9017512798309326,-0.33694517612457275,-0.31353217363357544,-0.040399834513664246,0.4189918637275696,0.8042314648628235,0.14491376280784607,-0.5548282265663147,0.04463821277022362,0.5373156070709229,-0.5626209378242493,0.5232502222061157,-0.01946662738919258,0.5540614724159241,-0.13204176723957062,1.23530113697052,0.35252895951271057,0.1133091077208519,0.0029638756532222033,-0.5610007643699646,-5.93549919128418,0.338005006313324,-0.057384297251701355,-0.20498904585838318,-1.0870015621185303,-0.24264082312583923,0.7795307636260986,0.572693943977356,0.8015228509902954,0.918674886226654,0.004955430515110493,0.7475839853286743,-0.7551072239875793,-0.5924248099327087,0.5170997977256775,0.4977353811264038,-0.700833261013031,0.2576044797897339,0.24071964621543884,-0.2623882591724396,-0.687916100025177,0.763480544090271,0.19233690202236176,0.7880595922470093,0.4602771997451782,-6.291921138763428,0.06857927143573761,0.46194934844970703,-0.09450618177652359,0.20346501469612122,-0.3806203603744507,0.0074948472902178764,0.47226518392562866,0.17426669597625732,0.6842094659805298,-0.2475457787513733,-0.2255273014307022,0.4805877208709717,0.44194164872169495,0.3379001021385193,0.3798135817050934,0.10892335325479507,0.2015351504087448,-0.8145850896835327,-0.01633201539516449,0.49744653701782227,0.2341015338897705,-0.28522342443466187,0.62050461769104,-0.23254136741161346,-0.8550341129302979,0.47583577036857605,0.34331244230270386,1.027378797531128,0.01237708330154419,0.4149951934814453,-0.08975595235824585,-0.5599037408828735,0.4767483174800873,-0.5097247362136841,0.3576911687850952,-0.5742725133895874,-0.5319263339042664,0.6253947019577026,-0.02266005612909794,0.5672905445098877,0.9851781725883484,-0.6293730735778809,0.5708516836166382,-0.09487277269363403,0.3667059540748596,0.10895819962024689,0.2350500524044037,0.7712393999099731,0.24766935408115387,0.14478322863578796,0.06056348979473114,1.4983346462249756,-0.07509732991456985,0.2539297044277191,0.5914048552513123,0.7373172640800476,-0.21208050847053528,0.1479324847459793,0.8400688767433167,0.30237749218940735,1.122097134590149,0.23809203505516052,0.37323182821273804,0.5048317909240723,-0.5609484910964966,-0.6879883408546448,-0.21330727636814117,0.7571386694908142,-0.229797825217247,0.22233746945858002,-0.432279109954834,0.15112987160682678,0.27700284123420715,0.9967787265777588,-0.67331862449646,0.8980686664581299,0.779525101184845,0.5005947947502136,-0.23547448217868805,0.7454668879508972,-0.0645790845155716,-0.5920121073722839,0.5444929599761963,-0.7426924705505371,0.2828464210033417,-0.36857733130455017,-0.44085827469825745,-0.372080534696579,0.799951434135437,-0.3057505488395691,0.5406287312507629,-0.31948432326316833,0.19755476713180542,-0.43143847584724426,-0.5256741046905518,0.5675110220909119,-1.287922739982605,0.3252418041229248,0.4538220763206482,-0.5193578600883484,-0.4275548458099365,-0.7583839297294617,0.25959765911102295,0.07738111168146133,-0.5872967839241028,0.15390560030937195,0.012331530451774597,-0.17005668580532074,0.0024841614067554474,-2.3695738315582275,0.7514868378639221,-0.03383199870586395,-0.08511228114366531,0.3554096221923828,-0.47326090931892395,-0.2928856909275055,0.8523905277252197
5.jpg,0.25409838557243347,0.11479502171278,0.056981198489665985,-0.7121809124946594,-0.18731622397899628,-1.3483132123947144,0.7979048490524292,-0.5928041338920593,0.6869924664497375,-0.07417893409729004,0.9339795112609863,0.11239225417375565,-0.0992678701877594,0.09090465307235718,0.6447628736495972,0.8072157502174377,0.6782636642456055,-0.1457034796476364,0.3137834072113037,-0.03029937483370304,0.019057035446166992,-0.1051078513264656,0.035770077258348465,0.2777719795703888,0.016182512044906616,-0.7973912358283997,-0.3414899706840515,0.9022405743598938,0.9663789868354797,0.04300469905138016,0.22417668998241425,-0.11302758753299713,-0.41302815079689026,-0.0212949737906456,0.3550511598587036,0.2138899862766266,-0.14157363772392273,0.7421615123748779,0.37994223833084106,0.649955689907074,1.0244147777557373,-0.022556189447641373,-0.4274243712425232,-1.1068050861358643,-0.410448282957077,-0.3380686044692993,-0.1565587818622589,0.13113045692443848,0.2893297076225281,-0.18688389658927917,-0.15759524703025818,0.2784286141395569,0.23204822838306427,0.02919118106365204,0.46658217906951904,-0.6582628488540649,-0.5669834017753601,-0.08832859992980957,0.02253362350165844,-0.8181777596473694,-0.39490145444869995,0.1760266125202179,0.5248422622680664,-0.39284393191337585,-0.1273176521062851,-0.13897845149040222,0.40692514181137085,0.6270281672477722,0.35571786761283875,0.4685802757740021,0.17863810062408447,-0.2029651701450348,0.7823081612586975,-0.15775129199028015,0.01232229359447956,-0.6161355376243591,0.13746550679206848,-0.32049989700317383,0.6866063475608826,0.5188215970993042,0.5046097636222839,-0.24840804934501648,0.18023334443569183,-0.5021559000015259,-0.7599096894264221,-0.13186216354370117,-0.7691742777824402,-0.10055713355541229,-0.14406812191009521,-0.0096218790858984,-0.10203700512647629,0.09140069782733917,-0.18124309182167053,-0.4119962155818939,0.22984804213047028,0.29121315479278564,-0.15137681365013123,0.22079645097255707,0.2514335811138153,0.723156213760376,0.36954888701438904,-1.3747676610946655,0.3322325646877289,0.6736355423927307,0.3791797459125519,-0.6231309771537781,-0.04060222953557968,0.29385486245155334,0.3514273464679718,0.597769021987915,0.6865203976631165,0.31951719522476196,-0.35438454151153564,0.5790031552314758,0.30665940046310425,-0.04622959718108177,-0.1554463803768158,2.0921764373779297,0.5910427570343018,0.7352771162986755,0.4061531126499176,-0.25363510847091675,-0.143314391374588,0.1251305639743805,-0.8296524286270142,-0.11139032989740372,-0.3340055048465729,1.0343459844589233,-7.349740028381348,-0.6948531866073608,-0.8590892553329468,-0.7258455157279968,-0.20965003967285156,0.7671458721160889,0.1496964991092682,-0.010833488777279854,0.1185372918844223,0.47062650322914124,0.6271685361862183,0.746719241142273,0.8844151496887207,-0.08085069060325623,1.2904715538024902,0.5375718474388123,0.40609806776046753,0.0943136140704155,-0.012155700474977493,-0.9151932001113892,0.9132899045944214,0.06821982562541962,-0.286937952041626,-0.2748590111732483,-0.5529708862304688,0.3186663091182709,0.8096158504486084,0.26615068316459656,-0.3523731827735901,-0.588815450668335,0.08357040584087372,-0.21734675765037537,0.407088041305542,0.6630077362060547,0.27307140827178955,0.07332339137792587,0.2638976573944092,-0.21868979930877686,1.0995761156082153,0.616940975189209,0.07754706591367722,0.7050784826278687,0.008814280852675438,0.3390883505344391,0.05211649835109711,0.7054510712623596,0.04861409217119217,-0.09710049629211426,1.6068416833877563,-0.18069645762443542,0.7263263463973999,0.30156439542770386,-0.12185623496770859,0.17357660830020905,0.0649680644273758,-0.507447361946106,-0.27362555265426636,-9.716581344604492,0.22378544509410858,1.0811588764190674,0.05323842540383339,0.025948498398065567,-0.058371253311634064,0.5632768273353577,-0.6123197078704834,-0.24019895493984222,0.13529790937900543,-0.18919461965560913,-0.20380224287509918,-0.002471637912094593,0.7076435089111328,0.34672632813453674,0.7658068537712097,-1.0461286306381226,-0.7283146381378174,-0.06402315199375153,0.35136306285858154,0.029248341917991638,0.6596207618713379,-0.24853479862213135,-0.24578841030597687,0.5758867263793945,-0.7376478314399719,-0.5379695892333984,1.0471028089523315,-0.524808943271637,-0.3745149075984955,0.7867740392684937,-0.5860299468040466,0.1921333372592926,1.0332523584365845,-1.2070060968399048,-0.12210313975811005,0.7734137773513794,7.880682468414307,-0.2169867753982544,0.10374337434768677,1.0544713735580444,-0.054910026490688324,0.6219146847724915,0.33581656217575073,0.7721446752548218,0.5383017659187317,0.21948930621147156,1.1983360052108765,0.38662654161453247,-0.5970394015312195,0.3135000169277191,0.34859636425971985,-0.06662669032812119,0.010465255007147789,-0.8420459032058716,0.02734140306711197,-0.9184390306472778,0.3915187120437622,-0.3543299436569214,-0.10038412362337112,0.9806978702545166,-0.26460298895835876,-0.01638495922088623,0.33840128779411316,0.6723865270614624,0.9176167845726013,-0.4889562427997589,-0.07182163745164871,0.4252776503562927,0.3342289626598358,0.11608489602804184,-0.5236148834228516,0.20731790363788605,0.5265786647796631,-0.568134069442749,0.09015561640262604,0.49758610129356384,-1.017509937286377,0.07649055868387222,-0.17514243721961975,-0.2025262713432312,0.510132908821106,-0.08362708985805511,0.6173378825187683,0.18362155556678772,-0.03318624570965767,1.3652673959732056,-0.3283599019050598,0.21860934793949127,0.17722168564796448,0.2107485830783844,-0.4219576120376587,0.9767383933067322,0.21186566352844238,0.3195551633834839,0.2629208564758301,0.5135894417762756,-0.024564892053604126,-0.3472582995891571,-0.2100745439529419,-0.24398759007453918,0.17496979236602783,0.1738126426935196,0.12861159443855286,0.07634874433279037,-0.8316349387168884,-0.6737001538276672,-0.227257639169693,0.08943277597427368,-0.28641271591186523,0.2605021595954895,0.19894197583198547,0.8156002163887024,0.1011066734790802,0.38395094871520996,1.2950119972229004,-0.020891891792416573,0.6101852655410767,0.15625254809856415,0.09179317206144333,-0.6817420721054077,0.7352197170257568,0.3796203136444092,0.2210933119058609,-0.045171916484832764,0.6946774125099182,0.1174805611371994,0.08522114902734756,0.721375048160553,0.19014781713485718,-0.2523624300956726,-0.3413580358028412,0.28548336029052734,0.415923148393631,-0.5965498685836792,-0.49786627292633057,0.4075442850589752,0.4803888201713562,-0.1124020367860794,0.25537797808647156,-0.09503050148487091,-0.03362930566072464,-0.46875712275505066,0.5828469395637512,-0.4811905026435852,1.1189489364624023,-0.37093254923820496,0.7842118740081787,0.2049921602010727,0.11231127381324768,3.206522226333618,-1.2310103178024292,-0.2916634976863861,-0.16558578610420227,0.0171913243830204,-0.021868206560611725,0.7934319972991943,0.15689054131507874,-0.43375611305236816,0.4110688269138336,-0.43880438804626465,-0.08659560978412628,-0.2524773180484772,0.17511601746082306,0.9174515604972839,-0.3773142993450165,0.946224570274353,-0.19740957021713257,-0.0784381702542305,-0.6908273696899414,-0.1652636080980301,0.394247442483902,-0.3548930287361145,-0.3002617657184601,-0.694183886051178,0.9515604972839355,-0.08963704854249954,0.1410313844680786,0.34434500336647034,1.2640007734298706,0.29484856128692627,-0.6207283139228821,-0.15915848314762115,-0.30168208479881287,-0.7206529378890991,-0.9342496991157532,0.2947964072227478,0.25567522644996643,0.7755732536315918,-0.29837125539779663,0.5829455852508545,-0.2867540121078491,0.40682345628738403,0.7195161581039429,-0.01915348693728447,0.18636906147003174,0.2236863523721695,0.7161636352539062,-0.07981082051992416,0.12205120921134949,-1.2845155000686646,-0.24297088384628296,1.2924635410308838,-0.04970761016011238,-0.3784017562866211,-0.1569811999797821,0.8147330284118652,-0.7500088214874268,-0.1479923129081726,0.7077957987785339,0.3551769256591797,0.7089531421661377,0.08153027296066284,0.2472851574420929,-1.0088865756988525,-0.7000066637992859,0.38342535495758057,-0.36588624119758606,0.33316314220428467,0.7162789702415466,0.9209069013595581,-0.20803877711296082,-0.01523307990282774,-0.6568100452423096,-0.20116835832595825,0.1692718267440796,0.10985312610864639,0.3235485851764679,-0.08708181232213974,0.6021717190742493,0.45306095480918884,-0.19406412541866302,-0.5842450857162476,1.5425288677215576,0.36360964179039,0.9291744828224182,-0.20341187715530396,0.9086104035377502,0.18760840594768524,0.24401000142097473,0.24444544315338135,-0.782678484916687,-0.2554084360599518,-0.32350414991378784,-0.18861329555511475,0.46082571148872375,0.10178050398826599,-0.3572256863117218,0.6807993054389954,-0.18930797278881073,0.8020927906036377,0.43983539938926697,0.6104657649993896,-0.32550057768821716,0.7410285472869873,0.912641167640686,0.6835567355155945,-0.0037434417754411697,-0.6200791597366333,0.33414480090141296,-0.0030544856563210487,0.21823924779891968,-0.009896641597151756,-0.08907541632652283,0.4895113706588745,0.06535453349351883,-0.05014177784323692,-0.19705143570899963,0.7241190075874329,0.2224448174238205,0.04501422867178917,0.2425996959209442,0.46001848578453064,0.2379840612411499,0.11778529733419418,-0.998041033744812,0.036395080387592316,-0.06032809242606163,-0.9016985893249512,0.8071892857551575,-0.6847137212753296,-0.4980558753013611,0.03446274250745773,0.4201730191707611,-0.1739479899406433,0.31462326645851135,0.0788629949092865,-0.8986342549324036,1.0197763442993164,0.0004287734627723694,0.5184182524681091,0.1890001744031906,0.3093375861644745,-0.00808161124587059,0.322537899017334,-0.4684847295284271,-0.5567482709884644,0.5102089047431946,-0.0034408830106258392,0.3125215768814087,0.19968970119953156,0.30116337537765503,-0.19096314907073975,0.005576305091381073,1.0534019470214844,0.2166418433189392,-0.06642414629459381,-0.11295270919799805,0.902289092540741,-0.319141685962677,-0.10018354654312134,-0.9262999892234802,-0.11083787679672241,-0.17130295932292938,0.626567542552948,-0.4227500855922699,0.5921283960342407,0.5134600400924683,-0.8267030119895935,0.28695109486579895,-3.3468637466430664,-0.39427000284194946,-0.659269392490387,0.05419684946537018,-0.17182263731956482,1.1556631326675415,0.7449449896812439,0.34382057189941406,-0.09887471795082092,-0.7324653267860413,0.5094943046569824,-0.5598967671394348,0.12292757630348206,1.1682878732681274,-0.4937862157821655,0.34980905055999756,0.4511546194553375,-0.7997679114341736,-0.5104637742042542,0.6170592904090881,1.067550778388977,0.3775104582309723,-0.2550804615020752,0.6395825743675232,0.355549693107605,0.5510191321372986,-0.38682547211647034,0.16323727369308472,0.17473725974559784,0.11581294238567352,-0.2645307183265686,0.02908109314739704,0.004896600265055895,-0.29720714688301086,0.05708584934473038,-0.009827293455600739,0.6053226590156555,0.09982629120349884,0.7365477085113525,-0.23561523854732513,0.0649188980460167,-0.04806063324213028,0.2510208487510681,0.03464484214782715,-0.08782909065485,1.2854292392730713,-0.04639251157641411,0.06951659172773361,0.355358362197876,0.09282433241605759,-0.36971285939216614,-0.32105332612991333,0.3256685435771942,-0.41634199023246765,0.010156476870179176,-0.07055363059043884,0.6482287645339966,-0.7776845693588257,-0.20595256984233856,-0.046305734664201736,0.6132017970085144,-0.13587355613708496,-0.2814531922340393,0.4354463219642639,-0.25912490487098694,-0.285844087600708,0.7235971689224243,0.7134671211242676,-0.07527080178260803,0.0026548802852630615,0.04487252235412598,0.45430615544319153,0.3655376136302948,0.3037251830101013,1.9856868982315063,0.9920018911361694,0.9578170776367188,0.588482677936554,-0.2558731734752655,0.9099600911140442,-0.5734251141548157,0.1677958220243454,0.04857496917247772,0.2729402780532837,-0.3294713497161865,-0.007443312555551529,-0.09910769760608673,-0.6085231900215149,-0.01172444224357605,-1.0538583993911743,0.6181995272636414,-0.5948404669761658,-0.4295140504837036,0.2982090413570404,-0.4206346273422241,0.06844164431095123,0.6403166651725769,0.5221854448318481,1.0849906206130981,3.349121570587158,1.0279940366744995,0.020484400913119316,-0.07602427899837494,-0.11915753781795502,0.6884484887123108,0.6305594444274902,-0.5397686958312988,0.02315155416727066,-0.37802112102508545,0.4175627827644348,-0.10491075366735458,0.9862334132194519,0.10066857933998108,0.9520201086997986,-0.20643436908721924,0.6789501309394836,-0.2650156617164612,-0.05623697489500046,-0.24801450967788696,0.04031680151820183,-8.08609676361084,0.3987081050872803,-0.09750756621360779,-0.45115506649017334,-0.5602490305900574,-0.3918662369251251,0.7505396604537964,0.6829061508178711,0.5121579170227051,0.6397905349731445,-0.5223138332366943,-0.012688149698078632,-0.5288535952568054,-1.1090751886367798,0.4682193696498871,0.3175557851791382,0.009012609720230103,0.2669900059700012,0.6633672118186951,-0.021411392837762833,0.040607813745737076,0.17366378009319305,-0.314296692609787,0.311933308839798,0.3677273392677307,-5.559328556060791,0.8744405508041382,0.1948796510696411,-0.7740369439125061,0.36504870653152466,0.41320279240608215,1.0606954097747803,0.7097766995429993,0.07556585967540741,0.3580223619937897,0.6074565052986145,-0.0008985484018921852,0.5654984712600708,0.0380413644015789,0.12043888121843338,-0.07139162719249725,0.638733983039856,0.5661084651947021,-1.0312433242797852,0.20484177768230438,0.4553655982017517,0.011528370901942253,0.5962807536125183,0.480714350938797,0.005572177469730377,-0.028032615780830383,0.7633272409439087,0.13577407598495483,0.6782535314559937,0.20183804631233215,0.2532723844051361,-0.5648223161697388,-0.005909860134124756,0.6120283007621765,-0.6488096714019775,0.28069716691970825,-0.2938084900379181,-0.683078944683075,0.6620132923126221,0.04768035188317299,0.20348307490348816,0.41714605689048767,-0.04248017817735672,0.47851884365081787,0.2868252098560333,0.2928362488746643,-0.5454986691474915,0.5368257164955139,0.27751636505126953,0.3704707622528076,0.26376262307167053,-0.1701774001121521,1.409525990486145,-0.14450037479400635,0.28044676780700684,0.3102772533893585,0.09240110218524933,0.343832403421402,-0.38714364171028137,0.6989974975585938,0.126883402466774,0.3749101161956787,0.012361700646579266,-0.07251595705747604,0.1463003009557724,-0.15883657336235046,-0.4205877482891083,0.8328425288200378,0.2543999254703522,-0.25190016627311707,0.2821059226989746,-0.8479401469230652,-0.26294636726379395,0.20422455668449402,0.4535190761089325,-1.26445734500885,0.4994213879108429,0.09703020006418228,0.3289138376712799,-0.1840640902519226,0.78767991065979,0.39351630210876465,0.019264446571469307,0.2210676670074463,-0.9215426445007324,0.23279500007629395,-0.2154819518327713,-0.18963073194026947,-0.8315508365631104,0.25332045555114746,0.08947427570819855,0.09406547248363495,-0.0780327171087265,-0.38432586193084717,-0.18810614943504333,-0.20452070236206055,0.7130837440490723,-1.7990243434906006,0.5618531703948975,0.5243899822235107,-0.005041822791099548,0.3715803027153015,-0.6784612536430359,0.14362159371376038,-0.028714850544929504,-0.10562004148960114,0.45127353072166443,0.5673452615737915,-0.2205946147441864,0.029871616512537003,-0.7226454615592957,-0.039017390459775925,0.012232623994350433,-0.05477868393063545,0.08065153658390045,-0.3833785355091095,0.2997749447822571,0.2704188823699951
6.jpg,1.0347636938095093,0.9026665091514587,0.2471795231103897,-0.5154806971549988,-0.7629640102386475,-1.0176491737365723,0.18022020161151886,-0.6737940907478333,1.6064268350601196,-0.5924947261810303,-0.30873948335647583,0.08682441711425781,0.524233877658844,0.6055533289909363,1.072427749633789,0.9637337327003479,0.5028053522109985,0.026634197682142258,0.5322283506393433,0.0031022652983665466,-0.5597320795059204,0.15198317170143127,-0.902802586555481,-0.3773745000362396,-0.4624019265174866,0.3544250726699829,-0.7302007079124451,1.0193796157836914,0.3821128010749817,0.6239994764328003,0.3611113131046295,-0.12495896220207214,-0.1995113044977188,0.038700513541698456,0.8649305105209351,-0.3253977596759796,0.8014726042747498,1.118716835975647,0.05881548672914505,0.15841133892536163,1.4359077215194702,-0.04032289236783981,0.1584656983613968,-0.7968624830245972,-0.0034890510141849518,0.5208093523979187,-0.5106731057167053,0.5194206237792969,0.5678970217704773,0.946380615234375,-0.6747690439224243,0.29063501954078674,-0.16000068187713623,0.29969948530197144,0.811854362487793,0.1394614279270172,0.08477170765399933,0.7744609117507935,-0.19773775339126587,-0.2901838421821594,-0.43116599321365356,-0.14295588433742523,0.43191060423851013,-0.1380777359008789,0.570137619972229,-0.4887012839317322,-0.6055529117584229,0.9321189522743225,0.26934731006622314,-0.38261210918426514,0.46868786215782166,-0.43508511781692505,-0.0632055252790451,-0.49512091279029846,-0.3508695960044861,-0.022134624421596527,0.14835238456726074,-0.3152819573879242,-0.08079440146684647,0.526525616645813,0.4821164011955261,0.6584789156913757,-0.13096106052398682,0.7371982336044312,-1.4473059177398682,-0.05224058777093887,0.23017939925193787,-0.4449666738510132,-0.2701321542263031,0.15721815824508667,0.3541111946105957,-0.4126100540161133,0.217643141746521,0.34858229756355286,0.7823179364204407,1.2195721864700317,-0.25461694598197937,0.1749858260154724,1.1399915218353271,0.5516685843467712,0.3997901678085327,-0.38790470361709595,0.8861616253852844,0.33688727021217346,0.27101603150367737,0.41558870673179626,-0.7859141826629639,0.5628462433815002,-0.013827232643961906,0.41019320487976074,0.8509553074836731,0.6936455368995667,-0.38832423090934753,0.9554256796836853,-0.26451388001441956,-0.15706442296504974,0.13961784541606903,2.8172597885131836,0.5974081158638,0.6657437086105347,0.35370638966560364,-0.34923696517944336,0.3356752395629883,0.0785396620631218,-0.508397102355957,-0.23561829328536987,-1.0407135486602783,0.9789133667945862,-7.125942230224609,-0.4280880391597748,-1.0122697353363037,-0.17717169225215912,0.041471630334854126,0.3074054718017578,0.9553878307342529,-0.2359534054994583,-0.3052307963371277,0.8451338410377502,0.30508920550346375,0.10469469428062439,0.10706545412540436,0.580057680606842,0.47698974609375,-0.20431949198246002,0.04402468353509903,-0.6389641761779785,0.9008557796478271,1.561875581741333,0.23848098516464233,-0.025973808020353317,0.12832602858543396,-0.4132758378982544,-0.006013657432049513,0.4032439589500427,0.28779396414756775,-0.20875102281570435,-0.9895405173301697,-0.2859523594379425,-0.005213960539549589,0.3251594305038452,0.11041822284460068,0.2334546148777008,-0.1756238043308258,-0.0008959230035543442,0.2791871726512909,-0.5197120904922485,0.7777844667434692,0.4899424910545349,-0.1643700897693634,0.059367090463638306,-0.21930380165576935,-0.8360286951065063,0.6970705389976501,0.5766952037811279,0.6269757151603699,-0.33675703406333923,0.3784993588924408,0.05862327665090561,0.9198848009109497,0.27760541439056396,0.5699677467346191,-0.06629279255867004,0.6264786124229431,-0.12185565382242203,-0.3698338270187378,-10.578856468200684,0.76282799243927,1.257133960723877,0.3572615683078766,-0.08318515866994858,-0.3866642117500305,-0.02774995192885399,-0.2155381143093109,-0.06293299049139023,0.17329606413841248,0.07528115063905716,-0.1392875760793686,-0.9461500644683838,0.2710556983947754,0.5679688453674316,0.416272908449173,-0.8132558465003967,-0.20837704837322235,0.14720511436462402,-0.16410093009471893,0.20836535096168518,0.904791533946991,0.32577261328697205,0.08865750581026077,0.7769325971603394,-0.23959548771381378,0.3983667194843292,0.311348557472229,-0.3583083152770996,0.16462258994579315,0.9751932621002197,-0.4754689335823059,0.05464434251189232,0.5804542303085327,-0.12310762703418732,0.26929935812950134,0.7764849066734314,7.175314903259277,0.466166228055954,-0.02726663649082184,0.5012869834899902,-0.09555157274007797,0.30151453614234924,-0.30620160698890686,0.8660597205162048,0.36477869749069214,0.14613832533359528,1.4228782653808594,-0.10976804047822952,-0.4188249409198761,0.12004133313894272,0.5148693919181824,0.02374090626835823,0.4398525655269623,-0.3318907916545868,0.042381029576063156,-0.6830196380615234,0.1862659454345703,-0.4229525029659271,0.15521888434886932,-0.3568130433559418,-0.31431302428245544,0.2953087389469147,0.6076500415802002,0.19726718962192535,0.8579501509666443,-0.07812127470970154,-0.35742318630218506,0.05732317268848419,-0.14939802885055542,0.3341260254383087,-0.8411074280738831,0.6158238649368286,0.10014942288398743,-0.7160360813140869,0.1269359141588211,0.31781601905822754,-1.9054778814315796,-0.5063901543617249,-0.05151370167732239,0.7337160110473633,0.014386140741407871,-0.07130667567253113,0.8529648184776306,-0.24892325699329376,-0.4386999011039734,1.3784434795379639,-0.11230946332216263,-0.5278682708740234,0.6525508761405945,0.07720624655485153,0.0686328113079071,0.28890374302864075,-0.5719429850578308,0.654874861240387,0.35585761070251465,0.780052125453949,0.23724114894866943,0.7085704803466797,0.25458940863609314,-0.4465577006340027,0.43602246046066284,0.20419402420520782,0.09268273413181305,0.5393806099891663,0.6034607887268066,0.1558970957994461,0.24948367476463318,0.4027078151702881,-0.18428489565849304,0.09376392513513565,0.32407882809638977,0.27797946333885193,0.3182263970375061,0.32468223571777344,0.6513943672180176,-0.8345175385475159,0.18732735514640808,1.0226770639419556,0.1507250964641571,-0.24432162940502167,0.6298395991325378,0.16851001977920532,1.1005604267120361,-0.45003122091293335,0.05202041566371918,0.11577476561069489,0.7305927872657776,1.0216554403305054,0.05441825091838837,1.1681480407714844,-1.03270423412323,-0.26077112555503845,0.7238969206809998,0.813162624835968,-0.35663124918937683,0.28986111283302307,0.1953023225069046,-0.11068153381347656,-0.3871341347694397,-0.3020314872264862,0.6477346420288086,-0.23826614022254944,0.16972856223583221,0.4217953681945801,0.9075107574462891,0.5898466110229492,0.5742313265800476,0.1945483684539795,0.17024043202400208,2.0211102962493896,-1.2307274341583252,-0.21627557277679443,0.26419371366500854,-0.08217795193195343,0.3060573637485504,0.3122568726539612,-0.2675846219062805,0.8415411114692688,1.3846744298934937,-1.0703636407852173,-0.2153622806072235,0.5622736215591431,-0.37249016761779785,-0.22620317339897156,-0.5738387703895569,0.7936692833900452,-0.4539141058921814,0.2827366888523102,0.24724087119102478,0.027700701728463173,0.3794826865196228,-0.33326634764671326,-0.17287836968898773,0.33411720395088196,-0.5297802090644836,-0.17130893468856812,0.219086155295372,0.23785218596458435,0.4689730405807495,0.4935959577560425,-0.23939962685108185,0.6895307898521423,-0.16975757479667664,0.14138418436050415,0.38437312841415405,0.6552689671516418,0.27514326572418213,0.1825268566608429,-0.28390228748321533,0.46307092905044556,-0.01990240439772606,0.5680031776428223,-0.3479318618774414,0.4034350514411926,-0.8372283577919006,-0.3001074194908142,-0.07910829782485962,-0.7569141983985901,0.06174881011247635,-0.4642474353313446,0.8501362800598145,0.6224310994148254,0.2725057303905487,-0.3127511143684387,0.8189287185668945,0.18435801565647125,0.3659026324748993,-1.1201918125152588,0.151087686419487,0.6798754334449768,0.36930015683174133,-0.06560575217008591,0.9416726231575012,-0.5943543314933777,-0.25241386890411377,0.2317056953907013,-0.27314427495002747,0.1817961037158966,0.8867474794387817,0.2631755471229553,-0.1538422554731369,0.6105328798294067,-0.05211762338876724,0.37631234526634216,0.08147338777780533,-0.6650968194007874,-0.26629993319511414,0.002130637876689434,0.8782678842544556,-0.2408968210220337,0.18075735867023468,-0.20173342525959015,0.7956933975219727,0.38762685656547546,0.0557546392083168,0.20913812518119812,0.6867042183876038,0.49822038412094116,-0.57938551902771,0.04115268588066101,-0.26540470123291016,0.35532769560813904,-0.6690759658813477,0.7348951101303101,0.03527563437819481,0.18745192885398865,-0.3227030038833618,0.5947005748748779,0.02135554887354374,0.9436879754066467,-0.08711928874254227,0.7813501954078674,-0.03850571811199188,0.27295756340026855,0.6234335899353027,0.8427749872207642,0.5109798312187195,-0.1977880299091339,0.7508736252784729,0.404649555683136,-0.2719922959804535,0.23188892006874084,0.27865365147590637,-0.38017213344573975,0.4678870141506195,-0.2710961699485779,0.38839322328567505,-0.5595297813415527,0.5680178999900818,-0.4657098650932312,0.9417779445648193,0.35862183570861816,0.5029503107070923,-0.45023953914642334,-1.0383886098861694,0.36974501609802246,-0.5166615843772888,0.12253649532794952,0.5161783695220947,-0.5007601380348206,-0.27911776304244995,-0.271714985370636,0.15173271298408508,-0.056922636926174164,0.6732511520385742,-1.3164812326431274,-1.2889480590820312,0.6592835187911987,-0.8965151309967041,0.9443362355232239,0.3337046205997467,0.9101288318634033,-0.02068336494266987,0.6192907691001892,-0.616168200969696,-0.11802808940410614,0.7209537625312805,-1.276875615119934,0.24723656475543976,1.2261160612106323,0.2630442976951599,1.074293613433838,0.1640642136335373,0.2631796896457672,0.9940714240074158,-0.15414974093437195,-0.8647565245628357,0.01490879338234663,-0.345206618309021,-0.1891801655292511,-0.8384062051773071,-0.782508134841919,0.2785886824131012,-0.051730841398239136,-0.49113816022872925,-0.15822862088680267,1.298919439315796,-0.4309421181678772,0.23007690906524658,-3.265963315963745,0.04358462244272232,-0.7925993800163269,0.8802924752235413,-0.004868529736995697,0.9146758913993835,0.8108937740325928,1.0871714353561401,0.41271331906318665,-0.3068627417087555,0.5740544199943542,-0.02773113176226616,-0.5592955946922302,0.8745405673980713,0.1225636899471283,0.5813835263252258,-0.05492250248789787,-0.564422607421875,-0.28528106212615967,0.8736892342567444,1.307031512260437,-0.016960829496383667,0.16126595437526703,0.5135400891304016,0.323750764131546,0.3497929871082306,-0.12407433241605759,0.3513970673084259,0.18178319931030273,0.8586192727088928,0.2137102335691452,0.5602652430534363,0.8240035176277161,0.16641341149806976,-0.22871732711791992,0.04914822056889534,0.3153414726257324,-0.04411621019244194,1.4013384580612183,0.6169053316116333,0.019396185874938965,0.3999730050563812,-0.13426248729228973,0.20555071532726288,-0.018110454082489014,0.3777702748775482,0.057996638119220734,0.1666143536567688,0.4316003620624542,0.4960648715496063,0.3735595643520355,-0.2183762490749359,0.002943074330687523,-0.26045385003089905,-0.23118501901626587,0.2337002158164978,0.5491235256195068,-0.8775745034217834,-0.4651358127593994,-0.3354741930961609,0.15417198836803436,-0.6566489338874817,-0.22724512219429016,0.1589459776878357,0.040791094303131104,-0.035009659826755524,0.45449209213256836,0.39595988392829895,-0.4985477924346924,0.2429012954235077,0.2381512075662613,0.6164731979370117,-0.5742427706718445,1.1657660007476807,1.824413776397705,0.8332937359809875,-0.12145717442035675,1.1217939853668213,-0.16915147006511688,0.4772149920463562,0.07796478271484375,0.033689387142658234,0.2111140936613083,-0.13693080842494965,-0.8083797097206116,0.18144434690475464,-1.1914359331130981,0.031077269464731216,-0.023246053606271744,-0.24105989933013916,0.4857010841369629,-0.4255611300468445,0.3791155219078064,0.3054185211658478,0.037581320852041245,0.5939821004867554,-0.20375290513038635,0.29338961839675903,0.3809441924095154,3.648496627807617,0.7912122011184692,-0.08995091170072556,0.11498844623565674,-0.4439319372177124,0.7403554916381836,0.624500036239624,0.36818987131118774,-0.06975951790809631,0.3074639141559601,0.9541438221931458,0.5489989519119263,-0.49598386883735657,0.1481427401304245,0.18522252142429352,0.47923198342323303,1.1464473009109497,0.08307967334985733,0.5332306027412415,0.1629338413476944,-1.1311390399932861,-6.685907363891602,1.2108187675476074,-0.11385254561901093,-0.5580905675888062,0.1305861473083496,-0.08440850675106049,0.6365199685096741,-0.4964444041252136,-0.11605670303106308,0.6941489577293396,0.01281769573688507,1.2197625637054443,-0.1921979933977127,-0.3113943040370941,1.3951013088226318,0.743583083152771,-0.7945862412452698,0.4459189176559448,0.6827543377876282,-0.09896694123744965,0.004212668165564537,0.7950696349143982,0.821166455745697,0.8807525634765625,0.7569469213485718,-6.223047733306885,-0.04494120925664902,0.7724200487136841,-0.07760194689035416,0.6120393872261047,-0.0061693862080574036,0.11891868710517883,-0.07266873121261597,-0.18549668788909912,0.6753659248352051,0.13078920543193817,-0.4976818859577179,-0.4670804440975189,0.07875695824623108,0.19572943449020386,0.2242080271244049,0.6047703623771667,-0.07947827130556107,-1.2110247611999512,0.16906222701072693,1.070685625076294,0.017502207309007645,-0.18199485540390015,0.7602910399436951,-0.23997525870800018,-0.9749095439910889,0.46588072180747986,-0.5112029910087585,1.1177650690078735,-0.01966889575123787,0.6471222043037415,-0.024876410141587257,-0.3316606879234314,0.8033196330070496,-0.6920324563980103,0.10670436918735504,-0.17950735986232758,-0.593127429485321,0.4285653829574585,-0.25727027654647827,-0.28101029992103577,0.2723436653614044,-0.642223596572876,0.8874441981315613,0.1834578514099121,-0.1407286375761032,-0.37231799960136414,0.6457479596138,0.38995495438575745,-0.32514503598213196,0.2950151264667511,-0.4749162495136261,1.0192028284072876,-0.09065762162208557,0.0936635360121727,0.8120607137680054,0.9244828820228577,-0.3086751401424408,-0.1213727593421936,0.9347618222236633,-0.3957499563694,0.9351441264152527,0.07461204379796982,0.5672855973243713,0.9241356253623962,-0.22985592484474182,-0.33852916955947876,0.5623514652252197,0.9520225524902344,0.0374758318066597,-0.10898178815841675,-0.7120325565338135,0.2658368945121765,0.07403901219367981,0.66459721326828,-1.15237557888031,0.5563850402832031,0.6905918121337891,-0.027365941554307938,-0.1722603738307953,0.3521140515804291,-0.26911455392837524,-0.11620817333459854,0.1866239458322525,-0.00040271319448947906,0.3942861258983612,-0.07343415170907974,-0.02427447959780693,-0.732814371585846,0.7158041000366211,-0.428723007440567,0.277256041765213,-0.1351102590560913,-0.2526025176048279,-0.13370901346206665,-0.05166715756058693,0.6582330465316772,-0.5940746068954468,-0.26181694865226746,0.24320857226848602,0.07671009004116058,-0.04752581566572189,-0.8915060758590698,0.42827311158180237,-0.042165614664554596,-0.34287944436073303,0.004772735759615898,0.40354427695274353,0.2417096346616745,0.0921671986579895,-2.3681535720825195,-0.025668084621429443,0.21179288625717163,-0.6548248529434204,0.5720586180686951,-0.3424323797225952,0.474892795085907,0.726925253868103
7.jpg,1.0235053300857544,0.2536751627922058,0.5127476453781128,-1.0269194841384888,-0.19307789206504822,-0.5252500176429749,0.31187182664871216,-0.42043691873550415,1.476305365562439,-0.7401314377784729,0.399220734834671,0.3733440339565277,-0.011568441987037659,0.029269907623529434,1.2873479127883911,1.1099849939346313,0.38010138273239136,-0.3045596480369568,-0.24294468760490417,-0.29901885986328125,0.1128639429807663,0.06182915344834328,-0.036261990666389465,0.5030284523963928,-0.4367513060569763,-0.11262083053588867,-0.5163944363594055,0.530749499797821,0.36924922466278076,0.3838273882865906,0.527860701084137,0.2293885201215744,-0.7558971047401428,0.2756049633026123,0.7704699039459229,0.3865101635456085,0.7679204940795898,1.0424646139144897,0.3643418848514557,-0.07356076687574387,1.423295021057129,0.24144339561462402,0.19351240992546082,-0.24245405197143555,0.06459755450487137,-0.18368034064769745,-0.21704860031604767,0.20724844932556152,0.4847002923488617,0.9340571165084839,-0.5057463049888611,0.6256892085075378,-0.20327194035053253,0.2415861189365387,0.5222245454788208,0.15070264041423798,-0.6918779015541077,0.15269161760807037,-0.08073507249355316,-0.6192864775657654,-0.5823161005973816,-0.16003090143203735,0.6457892060279846,0.14898644387722015,0.2694649398326874,-0.14974364638328552,-0.3312944173812866,0.7847912907600403,-0.053529560565948486,-0.12215647101402283,0.1820746511220932,-0.11126647889614105,-0.12517096102237701,-0.42096319794654846,0.654102087020874,0.1073770523071289,0.11116392910480499,-0.43231019377708435,0.2638964354991913,0.8128948211669922,0.1299746185541153,0.440912127494812,0.11785200238227844,0.4316495358943939,-0.893001914024353,0.2603040039539337,-0.16461482644081116,0.4151681959629059,0.14907370507717133,-0.17060917615890503,-0.6554713249206543,0.1872730702161789,0.673117458820343,0.3030562400817871,0.11185816675424576,1.4401277303695679,-0.37703263759613037,0.8608384728431702,0.640714168548584,0.03323037549853325,0.3259564936161041,0.01563415862619877,0.9799060225486755,1.0302526950836182,0.1319877952337265,0.38161802291870117,-0.5913791656494141,0.821516752243042,-0.4075571894645691,1.179181694984436,0.8121163845062256,0.5076725482940674,-0.20150992274284363,0.5629974603652954,-0.9001172184944153,0.037255313247442245,-0.3618258237838745,2.896986246109009,0.5086485743522644,0.10683038830757141,0.4570130705833435,0.1196642816066742,-0.4155064821243286,0.06949048489332199,-0.534907341003418,0.15502162277698517,-0.4051864445209503,0.9364078640937805,-7.226500034332275,-0.9533928036689758,-0.11469161510467529,-0.41517263650894165,-0.10700146108865738,0.47984471917152405,1.0201913118362427,0.13949435949325562,0.32752493023872375,0.35076144337654114,-0.5153472423553467,0.7327167391777039,0.662325918674469,-0.47806546092033386,0.5101680159568787,0.49537762999534607,-0.342545747756958,0.1789553463459015,0.5563600063323975,0.8356574177742004,0.9419461488723755,0.11374489963054657,0.5853007435798645,-0.08447150886058807,0.025049082934856415,0.48346301913261414,0.2448885440826416,0.39412280917167664,-0.9055731892585754,-0.6719951629638672,-0.08595824241638184,0.6280614137649536,0.09837580472230911,0.6817111968994141,-0.5707914233207703,0.08897855877876282,0.5514758825302124,-0.049299854785203934,1.3109968900680542,0.20456165075302124,-0.25673970580101013,0.2789364159107208,-0.14493510127067566,-0.24845507740974426,0.3807298541069031,0.4742894172668457,0.1040060743689537,-0.513211190700531,0.9062784910202026,-0.21007028222084045,1.2008329629898071,0.7218182682991028,0.1845409870147705,0.07023711502552032,-0.2332163155078888,0.251596063375473,-0.36006271839141846,-10.828309059143066,-0.2750908434391022,0.6615577936172485,0.4064728021621704,0.319542795419693,0.16019995510578156,0.7923173308372498,-0.8424493670463562,-0.1195557713508606,0.06555774807929993,0.6702298521995544,-0.4523921310901642,-0.9652222394943237,0.7977248430252075,0.20478449761867523,0.9098721146583557,-0.5041764974594116,-0.10136262327432632,-0.010065153241157532,0.546000599861145,0.1875477135181427,0.8197196125984192,0.3225301206111908,0.44527339935302734,0.717069149017334,0.05896162986755371,0.2735811173915863,0.4177812337875366,-0.7870277762413025,-0.384929358959198,0.9125967025756836,-0.35766249895095825,0.6542052626609802,1.0064847469329834,0.017600007355213165,-0.0963161289691925,0.8244629502296448,7.0793776512146,0.48541051149368286,-0.14651381969451904,0.26753711700439453,0.6521840691566467,0.6814411878585815,0.42083412408828735,1.2266676425933838,1.1110674142837524,0.2749732732772827,1.10374915599823,0.07527996599674225,-0.44756636023521423,-0.5544168949127197,0.4912954568862915,-0.03204358369112015,0.6472917795181274,-0.6296564936637878,0.2705518901348114,-0.6080700755119324,0.4266774356365204,-0.7284632921218872,0.08746684342622757,0.0538976714015007,-0.09224943816661835,0.3591780364513397,0.34379813075065613,0.24639751017093658,0.16317683458328247,-0.6789518594741821,0.32682713866233826,0.6074426174163818,0.1366177797317505,0.8521614074707031,-0.6021968126296997,0.7427127361297607,0.4779681861400604,-0.8259890079498291,-0.1321597844362259,0.5723931789398193,-1.85062837600708,-0.1937565952539444,0.1492345631122589,0.1625385582447052,0.6040502190589905,-0.557586133480072,0.596578061580658,-0.28123632073402405,-0.24975812435150146,0.9837756156921387,-0.13582506775856018,-0.29656991362571716,0.30681586265563965,0.7561994791030884,0.34918415546417236,0.6089997887611389,-0.4637763500213623,0.3704880177974701,0.12149964272975922,0.6306335926055908,-0.4748905599117279,-0.04951941594481468,0.10751345753669739,-0.1947655826807022,1.0741673707962036,0.2670132517814636,0.09491544961929321,0.005860734730958939,-0.26523080468177795,-0.654280960559845,0.2981846034526825,0.6622892022132874,-0.5250630378723145,0.13575223088264465,0.6145473122596741,0.33079883456230164,0.7713173627853394,0.16122591495513916,1.2417235374450684,-0.12908850610256195,0.14156584441661835,0.506586492061615,0.0912642851471901,-0.4094347655773163,0.5369217395782471,0.44762447476387024,0.4170401096343994,0.5931872725486755,-0.32686343789100647,0.00849323719739914,0.4209884703159332,0.963809072971344,0.19127246737480164,1.3437529802322388,-0.6428449749946594,-0.2284640669822693,0.6048882007598877,0.11141101270914078,-0.2873716354370117,0.32693958282470703,0.40739065408706665,-0.3082772493362427,-0.26225486397743225,0.2118096649646759,0.154219388961792,-0.19465118646621704,-0.2230166494846344,-0.058926865458488464,0.8409734964370728,0.4617654085159302,0.27560514211654663,0.25814342498779297,0.19608153402805328,2.2067434787750244,-0.6925305128097534,-0.227306067943573,0.18786762654781342,0.7783832550048828,0.05219251662492752,-0.21529942750930786,-0.7158995270729065,0.4166855812072754,0.9020633697509766,-0.993942141532898,-0.1971505582332611,0.47351810336112976,0.18187054991722107,0.4698849320411682,-0.36166971921920776,0.7731221318244934,-0.27497220039367676,-0.6259152293205261,-0.1977711021900177,-0.06158722564578056,0.5793359875679016,-0.9809736013412476,-0.5141415596008301,-0.4202125668525696,0.4212411642074585,0.04052705317735672,-0.25136077404022217,0.17625582218170166,-0.02404957264661789,-0.04559842497110367,-0.17584837973117828,0.22271063923835754,-0.5522531867027283,0.07203846424818039,-0.4996020197868347,0.6085106730461121,0.881924569606781,0.28066712617874146,-0.34121808409690857,0.3109046220779419,-0.107966847717762,0.9454549551010132,-0.06532048434019089,0.1061338484287262,-0.8665218353271484,-0.8920425772666931,0.362289696931839,-0.786954939365387,0.19578051567077637,-0.2584274113178253,0.07696065306663513,0.6393929123878479,0.6284506916999817,-0.05367650091648102,0.04905682057142258,1.017871618270874,0.0075242780148983,-0.5235772132873535,0.6072078347206116,0.3846125602722168,0.31693148612976074,-0.1019628494977951,0.600536584854126,-0.5192991495132446,-0.2211470603942871,0.3608754575252533,0.031157732009887695,0.1286783516407013,0.9894582033157349,-0.0412256233394146,-0.25767117738723755,0.3329925239086151,-0.003491133451461792,0.3205181062221527,-0.11380834877490997,-0.020465321838855743,-0.4407154619693756,-0.059562236070632935,1.1267973184585571,0.09035621583461761,0.07932455837726593,-0.4573698043823242,1.019142508506775,0.24020445346832275,-0.05794448405504227,0.1336199939250946,0.0024836957454681396,0.5278527736663818,-0.3623450696468353,0.38696998357772827,-0.7074080109596252,0.6135548949241638,-1.499492883682251,0.5002034306526184,0.2288125604391098,-0.056326016783714294,-0.48776760697364807,1.3122830390930176,-0.3321426808834076,0.8188988566398621,0.25931012630462646,0.6655316352844238,-0.5106409192085266,0.9973787069320679,0.43078064918518066,0.5031690001487732,0.30843809247016907,-0.5278347730636597,0.6296038627624512,0.14548605680465698,0.5595954060554504,-0.2831016182899475,0.2432333379983902,0.19367161393165588,0.7137740850448608,0.20058298110961914,-0.28768637776374817,-0.13425661623477936,0.2404499500989914,0.7049393653869629,0.902522623538971,0.08260740339756012,0.5643872618675232,-0.03912193700671196,-0.24668902158737183,0.18640947341918945,-0.5611442923545837,-0.7749685645103455,0.680300235748291,-0.11627312749624252,0.17714595794677734,-0.2800484895706177,-0.06725224107503891,-0.05643182992935181,0.9061192274093628,-1.2269023656845093,-1.1192989349365234,0.932551383972168,-0.36642616987228394,0.5427403450012207,0.34442567825317383,0.8585613965988159,0.10289043933153152,0.36546528339385986,-0.8533194065093994,-0.8196824789047241,0.7578447461128235,-0.4025268852710724,0.4961950480937958,1.4918408393859863,0.4839622676372528,0.031753309071063995,0.23461197316646576,0.3201755881309509,1.0526807308197021,-0.4354824125766754,-0.5293747782707214,0.8190869092941284,-0.05433401092886925,-0.10436108708381653,-0.3862977623939514,-0.2233814299106598,0.12197878211736679,0.5105209946632385,-0.17451594769954681,0.556860625743866,0.6588555574417114,-0.23316791653633118,-0.07101156562566757,-3.1444339752197266,-0.17601598799228668,-0.7355033159255981,0.9176336526870728,0.3790826201438904,0.4909123480319977,0.6355162858963013,0.5323060154914856,0.16128991544246674,-0.20572316646575928,0.5931047797203064,-0.03347703069448471,-0.07266125082969666,0.35444891452789307,-0.17552664875984192,0.33554646372795105,0.32715287804603577,-0.5973379611968994,-0.3251151442527771,0.4865901470184326,1.2581818103790283,-0.2663229703903198,-0.19911782443523407,0.4575185179710388,0.12872260808944702,0.26001667976379395,0.38927069306373596,-0.08695698529481888,-0.10427883267402649,0.43690621852874756,0.6122735142707825,0.25815826654434204,1.0682436227798462,-0.26233625411987305,0.1200440376996994,-0.026234619319438934,0.8157750964164734,0.2842719852924347,0.6016123294830322,-0.08901353180408478,0.1267535239458084,0.11394424736499786,0.3546958565711975,0.5171748995780945,0.26540011167526245,-0.02567266672849655,0.23625622689723969,-0.21388806402683258,0.07573544234037399,-0.026254523545503616,0.3046111464500427,-0.2694343328475952,0.4211350083351135,-0.002107221633195877,-0.5576066970825195,0.5364128947257996,0.7386981248855591,-0.8247822523117065,-0.657150387763977,0.2537441551685333,0.24894918501377106,-0.18348728120326996,0.1328718364238739,0.5360687375068665,0.10075702518224716,0.41350388526916504,0.8487224578857422,0.9441617131233215,0.11803804337978363,0.1529194414615631,-0.06305250525474548,0.7562143206596375,-0.4657045006752014,0.8731608986854553,1.0409718751907349,0.6756049990653992,0.26935774087905884,0.4204457700252533,0.38186392188072205,0.4009966254234314,-0.5480642318725586,0.7216705679893494,0.018747027963399887,-0.3156810998916626,-0.6481659412384033,-0.27186477184295654,-0.16383999586105347,-0.5950093865394592,-0.20380425453186035,-1.0158401727676392,0.5071723461151123,-0.4302957057952881,0.7015384435653687,-0.12197205424308777,-0.2653612196445465,0.3421858847141266,0.7245043516159058,-0.32764434814453125,0.6812728643417358,4.924558639526367,0.8202390670776367,0.14719940721988678,-0.24138829112052917,0.5456932783126831,0.12919865548610687,0.30301588773727417,0.17376989126205444,-0.1818847954273224,0.022073788568377495,0.7211113572120667,-0.37296146154403687,-0.34651774168014526,0.5440428256988525,0.37757837772369385,0.3433193266391754,1.1696110963821411,0.17141635715961456,1.0003141164779663,0.04571910947561264,-1.7102108001708984,-5.28962516784668,0.18350215256214142,-0.05570857226848602,-0.3207385241985321,-1.0067713260650635,-0.3833569586277008,1.216577172279358,-0.05812101066112518,-0.03342754393815994,0.6893165707588196,-0.32073941826820374,0.5362935662269592,0.10104244947433472,-0.43458291888237,0.6904958486557007,0.9290730357170105,-0.4562394618988037,0.038682036101818085,0.48777565360069275,0.005041353404521942,-0.31579500436782837,1.2466055154800415,0.7593167424201965,0.44468703866004944,0.4310266375541687,-5.861120700836182,-0.4703455865383148,-0.08091451227664948,-0.15745969116687775,0.5151541829109192,-0.23379649221897125,0.16008685529232025,0.39024919271469116,0.1787530481815338,1.6035926342010498,0.18477380275726318,-0.24050939083099365,-0.5582551956176758,0.36577215790748596,-0.17695647478103638,0.4881621301174164,0.646019697189331,0.04775616154074669,-0.8565207123756409,-0.18807294964790344,0.9584212303161621,0.42080259323120117,-0.22390466928482056,0.8173148036003113,-0.07401099801063538,-0.28691890835762024,0.34092751145362854,0.38026270270347595,0.8968789577484131,0.6238139867782593,0.18929433822631836,-0.6364160180091858,-0.507278561592102,0.6693951487541199,-0.33428657054901123,0.4638967514038086,-0.20363740622997284,-0.48653697967529297,0.31001409888267517,0.001983754336833954,0.3639715015888214,0.5344424247741699,-0.7443253993988037,0.9060482978820801,0.016313442960381508,-0.18197101354599,0.1245003342628479,0.23927024006843567,0.7095630764961243,-0.19048170745372772,0.2601465880870819,-0.2288241982460022,1.5312179327011108,0.07788319140672684,0.15700750052928925,0.2737933397293091,0.31170207262039185,-0.8422656059265137,0.057621538639068604,-0.1582336127758026,0.24269583821296692,1.410266637802124,0.05483972653746605,0.005782564170658588,0.6846715807914734,-0.5058004260063171,-0.39402446150779724,0.12951713800430298,0.7353101968765259,-0.2797527611255646,0.36297574639320374,-0.10451100021600723,0.47794538736343384,0.8748428821563721,1.0354925394058228,0.27774617075920105,0.4856429398059845,0.843643844127655,0.7931609749794006,-0.5445072054862976,0.6278330087661743,0.5146924257278442,-0.4895952343940735,0.44690218567848206,0.228763610124588,0.22384093701839447,-0.1035841703414917,-0.33675405383110046,-0.5651561617851257,0.6648515462875366,-0.6081320643424988,0.663814902305603,-0.34294524788856506,0.37634947896003723,-0.6607399582862854,0.12738817930221558,0.5216935276985168,-1.2568285465240479,-0.03968121111392975,0.9344807267189026,-0.2043285369873047,-0.8409056067466736,-1.33809494972229,-0.11230495572090149,0.4220006465911865,-1.0297863483428955,0.027761399745941162,0.23801159858703613,0.1079215481877327,0.36011803150177,-2.3131282329559326,0.28161847591400146,0.22852180898189545,-0.7946428656578064,0.5275243520736694,-0.7508013844490051,-0.024147994816303253,0.47728291153907776
